"# Channel 1"
"# Trace 1"
Frequency, Formatted Data, Formatted Data
+1.00000000000E+009, -8.61728916558E-001, +0.00000000000E+000
+1.01187500000E+009, -8.83482665727E-001, +0.00000000000E+000
+1.02375000000E+009, -9.04326214859E-001, +0.00000000000E+000
+1.03562500000E+009, -8.83446799578E-001, +0.00000000000E+000
+1.04750000000E+009, -8.83874754783E-001, +0.00000000000E+000
+1.05937500000E+009, -9.17372521927E-001, +0.00000000000E+000
+1.07125000000E+009, -9.16191604790E-001, +0.00000000000E+000
+1.08312500000E+009, -9.35957337729E-001, +0.00000000000E+000
+1.09500000000E+009, -9.34455959378E-001, +0.00000000000E+000
+1.10687500000E+009, -9.31475412640E-001, +0.00000000000E+000
+1.11875000000E+009, -9.32954729350E-001, +0.00000000000E+000
+1.13062500000E+009, -9.34766097390E-001, +0.00000000000E+000
+1.14250000000E+009, -9.27488655593E-001, +0.00000000000E+000
+1.15437500000E+009, -9.17781176099E-001, +0.00000000000E+000
+1.16625000000E+009, -9.23085828820E-001, +0.00000000000E+000
+1.17812500000E+009, -9.31374651615E-001, +0.00000000000E+000
+1.19000000000E+009, -9.25820416824E-001, +0.00000000000E+000
+1.20187500000E+009, -9.32184128251E-001, +0.00000000000E+000
+1.21375000000E+009, -9.23361525006E-001, +0.00000000000E+000
+1.22562500000E+009, -9.50617792552E-001, +0.00000000000E+000
+1.23750000000E+009, -9.50680258871E-001, +0.00000000000E+000
+1.24937500000E+009, -9.91145733297E-001, +0.00000000000E+000
+1.26125000000E+009, -1.00226411959E+000, +0.00000000000E+000
+1.27312500000E+009, -1.02816676709E+000, +0.00000000000E+000
+1.28500000000E+009, -1.05506415033E+000, +0.00000000000E+000
+1.29687500000E+009, -1.11704839243E+000, +0.00000000000E+000
+1.30875000000E+009, -1.14499429255E+000, +0.00000000000E+000
+1.32062500000E+009, -1.16997220613E+000, +0.00000000000E+000
+1.33250000000E+009, -1.19119334156E+000, +0.00000000000E+000
+1.34437500000E+009, -1.24527355983E+000, +0.00000000000E+000
+1.35625000000E+009, -1.26813779549E+000, +0.00000000000E+000
+1.36812500000E+009, -1.30855386721E+000, +0.00000000000E+000
+1.38000000000E+009, -1.35161175956E+000, +0.00000000000E+000
+1.39187500000E+009, -1.35071368401E+000, +0.00000000000E+000
+1.40375000000E+009, -1.36769063468E+000, +0.00000000000E+000
+1.41562500000E+009, -1.37861645823E+000, +0.00000000000E+000
+1.42750000000E+009, -1.40604493113E+000, +0.00000000000E+000
+1.43937500000E+009, -1.39409356256E+000, +0.00000000000E+000
+1.45125000000E+009, -1.41524017989E+000, +0.00000000000E+000
+1.46312500000E+009, -1.41590091358E+000, +0.00000000000E+000
+1.47500000000E+009, -1.40485716394E+000, +0.00000000000E+000
+1.48687500000E+009, -1.41011859080E+000, +0.00000000000E+000
+1.49875000000E+009, -1.40492738430E+000, +0.00000000000E+000
+1.51062500000E+009, -1.41693053896E+000, +0.00000000000E+000
+1.52250000000E+009, -1.42503640131E+000, +0.00000000000E+000
+1.53437500000E+009, -1.40663336821E+000, +0.00000000000E+000
+1.54625000000E+009, -1.41623634598E+000, +0.00000000000E+000
+1.55812500000E+009, -1.42911732874E+000, +0.00000000000E+000
+1.57000000000E+009, -1.44456572461E+000, +0.00000000000E+000
+1.58187500000E+009, -1.47517491519E+000, +0.00000000000E+000
+1.59375000000E+009, -1.50103341335E+000, +0.00000000000E+000
+1.60562500000E+009, -1.53047136778E+000, +0.00000000000E+000
+1.61750000000E+009, -1.54746851016E+000, +0.00000000000E+000
+1.62937500000E+009, -1.56623654559E+000, +0.00000000000E+000
+1.64125000000E+009, -1.61035972939E+000, +0.00000000000E+000
+1.65312500000E+009, -1.62475214735E+000, +0.00000000000E+000
+1.66500000000E+009, -1.62797084163E+000, +0.00000000000E+000
+1.67687500000E+009, -1.65599047795E+000, +0.00000000000E+000
+1.68875000000E+009, -1.65362709670E+000, +0.00000000000E+000
+1.70062500000E+009, -1.68022459807E+000, +0.00000000000E+000
+1.71250000000E+009, -1.65623998405E+000, +0.00000000000E+000
+1.72437500000E+009, -1.68516580510E+000, +0.00000000000E+000
+1.73625000000E+009, -1.68021032965E+000, +0.00000000000E+000
+1.74812500000E+009, -1.67777698242E+000, +0.00000000000E+000
+1.76000000000E+009, -1.67545272861E+000, +0.00000000000E+000
+1.77187500000E+009, -1.67989862388E+000, +0.00000000000E+000
+1.78375000000E+009, -1.64903411432E+000, +0.00000000000E+000
+1.79562500000E+009, -1.68531867442E+000, +0.00000000000E+000
+1.80750000000E+009, -1.65948539218E+000, +0.00000000000E+000
+1.81937500000E+009, -1.64635984839E+000, +0.00000000000E+000
+1.83125000000E+009, -1.63306020093E+000, +0.00000000000E+000
+1.84312500000E+009, -1.62609923292E+000, +0.00000000000E+000
+1.85500000000E+009, -1.57529976732E+000, +0.00000000000E+000
+1.86687500000E+009, -1.57597329201E+000, +0.00000000000E+000
+1.87875000000E+009, -1.57271859766E+000, +0.00000000000E+000
+1.89062500000E+009, -1.59269461453E+000, +0.00000000000E+000
+1.90250000000E+009, -1.58626312170E+000, +0.00000000000E+000
+1.91437500000E+009, -1.60881757707E+000, +0.00000000000E+000
+1.92625000000E+009, -1.60929213849E+000, +0.00000000000E+000
+1.93812500000E+009, -1.61895472396E+000, +0.00000000000E+000
+1.95000000000E+009, -1.64747935195E+000, +0.00000000000E+000
+1.96187500000E+009, -1.66221671975E+000, +0.00000000000E+000
+1.97375000000E+009, -1.68754658480E+000, +0.00000000000E+000
+1.98562500000E+009, -1.69806283323E+000, +0.00000000000E+000
+1.99750000000E+009, -1.68872969080E+000, +0.00000000000E+000
+2.00937500000E+009, -1.71608377247E+000, +0.00000000000E+000
+2.02125000000E+009, -1.71588106904E+000, +0.00000000000E+000
+2.03312500000E+009, -1.69535619416E+000, +0.00000000000E+000
+2.04500000000E+009, -1.66897679606E+000, +0.00000000000E+000
+2.05687500000E+009, -1.67705529812E+000, +0.00000000000E+000
+2.06875000000E+009, -1.66700383573E+000, +0.00000000000E+000
+2.08062500000E+009, -1.67540628054E+000, +0.00000000000E+000
+2.09250000000E+009, -1.67372683410E+000, +0.00000000000E+000
+2.10437500000E+009, -1.66082532007E+000, +0.00000000000E+000
+2.11625000000E+009, -1.64408808631E+000, +0.00000000000E+000
+2.12812500000E+009, -1.62241023310E+000, +0.00000000000E+000
+2.14000000000E+009, -1.62807420377E+000, +0.00000000000E+000
+2.15187500000E+009, -1.62527147938E+000, +0.00000000000E+000
+2.16375000000E+009, -1.59471193614E+000, +0.00000000000E+000
+2.17562500000E+009, -1.57376831121E+000, +0.00000000000E+000
+2.18750000000E+009, -1.55503395064E+000, +0.00000000000E+000
+2.19937500000E+009, -1.53336306170E+000, +0.00000000000E+000
+2.21125000000E+009, -1.53309013924E+000, +0.00000000000E+000
+2.22312500000E+009, -1.51324851736E+000, +0.00000000000E+000
+2.23500000000E+009, -1.50039575572E+000, +0.00000000000E+000
+2.24687500000E+009, -1.52047084630E+000, +0.00000000000E+000
+2.25875000000E+009, -1.50486862661E+000, +0.00000000000E+000
+2.27062500000E+009, -1.51207634711E+000, +0.00000000000E+000
+2.28250000000E+009, -1.49997290505E+000, +0.00000000000E+000
+2.29437500000E+009, -1.50363661155E+000, +0.00000000000E+000
+2.30625000000E+009, -1.50256290189E+000, +0.00000000000E+000
+2.31812500000E+009, -1.48639313133E+000, +0.00000000000E+000
+2.33000000000E+009, -1.47827770539E+000, +0.00000000000E+000
+2.34187500000E+009, -1.46937440094E+000, +0.00000000000E+000
+2.35375000000E+009, -1.47260031394E+000, +0.00000000000E+000
+2.36562500000E+009, -1.46547519250E+000, +0.00000000000E+000
+2.37750000000E+009, -1.47561740973E+000, +0.00000000000E+000
+2.38937500000E+009, -1.47431240167E+000, +0.00000000000E+000
+2.40125000000E+009, -1.49711361991E+000, +0.00000000000E+000
+2.41312500000E+009, -1.46865260231E+000, +0.00000000000E+000
+2.42500000000E+009, -1.48546916148E+000, +0.00000000000E+000
+2.43687500000E+009, -1.46917318097E+000, +0.00000000000E+000
+2.44875000000E+009, -1.47875012504E+000, +0.00000000000E+000
+2.46062500000E+009, -1.46041034761E+000, +0.00000000000E+000
+2.47250000000E+009, -1.46552873766E+000, +0.00000000000E+000
+2.48437500000E+009, -1.44077652860E+000, +0.00000000000E+000
+2.49625000000E+009, -1.44256474686E+000, +0.00000000000E+000
+2.50812500000E+009, -1.42056496056E+000, +0.00000000000E+000
+2.52000000000E+009, -1.41202198914E+000, +0.00000000000E+000
+2.53187500000E+009, -1.41158806625E+000, +0.00000000000E+000
+2.54375000000E+009, -1.40313998901E+000, +0.00000000000E+000
+2.55562500000E+009, -1.39983360675E+000, +0.00000000000E+000
+2.56750000000E+009, -1.40817904252E+000, +0.00000000000E+000
+2.57937500000E+009, -1.38538639078E+000, +0.00000000000E+000
+2.59125000000E+009, -1.37044724759E+000, +0.00000000000E+000
+2.60312500000E+009, -1.37716920870E+000, +0.00000000000E+000
+2.61500000000E+009, -1.35806664910E+000, +0.00000000000E+000
+2.62687500000E+009, -1.36422637386E+000, +0.00000000000E+000
+2.63875000000E+009, -1.34725977022E+000, +0.00000000000E+000
+2.65062500000E+009, -1.34221353184E+000, +0.00000000000E+000
+2.66250000000E+009, -1.33314091746E+000, +0.00000000000E+000
+2.67437500000E+009, -1.32996894211E+000, +0.00000000000E+000
+2.68625000000E+009, -1.31071178717E+000, +0.00000000000E+000
+2.69812500000E+009, -1.31490388583E+000, +0.00000000000E+000
+2.71000000000E+009, -1.29131941573E+000, +0.00000000000E+000
+2.72187500000E+009, -1.30134147882E+000, +0.00000000000E+000
+2.73375000000E+009, -1.29606914539E+000, +0.00000000000E+000
+2.74562500000E+009, -1.29523480690E+000, +0.00000000000E+000
+2.75750000000E+009, -1.30216076575E+000, +0.00000000000E+000
+2.76937500000E+009, -1.31037474836E+000, +0.00000000000E+000
+2.78125000000E+009, -1.32059039474E+000, +0.00000000000E+000
+2.79312500000E+009, -1.32059593662E+000, +0.00000000000E+000
+2.80500000000E+009, -1.32492500706E+000, +0.00000000000E+000
+2.81687500000E+009, -1.31415655541E+000, +0.00000000000E+000
+2.82875000000E+009, -1.32445904823E+000, +0.00000000000E+000
+2.84062500000E+009, -1.34034446204E+000, +0.00000000000E+000
+2.85250000000E+009, -1.31568136355E+000, +0.00000000000E+000
+2.86437500000E+009, -1.32032194065E+000, +0.00000000000E+000
+2.87625000000E+009, -1.31547104631E+000, +0.00000000000E+000
+2.88812500000E+009, -1.30502271076E+000, +0.00000000000E+000
+2.90000000000E+009, -1.28958144149E+000, +0.00000000000E+000
+2.91187500000E+009, -1.28633962490E+000, +0.00000000000E+000
+2.92375000000E+009, -1.28100174046E+000, +0.00000000000E+000
+2.93562500000E+009, -1.28505828026E+000, +0.00000000000E+000
+2.94750000000E+009, -1.26430637829E+000, +0.00000000000E+000
+2.95937500000E+009, -1.26309313773E+000, +0.00000000000E+000
+2.97125000000E+009, -1.25214677805E+000, +0.00000000000E+000
+2.98312500000E+009, -1.23474111924E+000, +0.00000000000E+000
+2.99500000000E+009, -1.22275639879E+000, +0.00000000000E+000
+3.00687500000E+009, -1.21355025314E+000, +0.00000000000E+000
+3.01875000000E+009, -1.20688018858E+000, +0.00000000000E+000
+3.03062500000E+009, -1.19298631441E+000, +0.00000000000E+000
+3.04250000000E+009, -1.17122266257E+000, +0.00000000000E+000
+3.05437500000E+009, -1.16805264106E+000, +0.00000000000E+000
+3.06625000000E+009, -1.17436298007E+000, +0.00000000000E+000
+3.07812500000E+009, -1.16737853138E+000, +0.00000000000E+000
+3.09000000000E+009, -1.17156308231E+000, +0.00000000000E+000
+3.10187500000E+009, -1.19246757954E+000, +0.00000000000E+000
+3.11375000000E+009, -1.18262325678E+000, +0.00000000000E+000
+3.12562500000E+009, -1.18310790426E+000, +0.00000000000E+000
+3.13750000000E+009, -1.21706467382E+000, +0.00000000000E+000
+3.14937500000E+009, -1.21474422583E+000, +0.00000000000E+000
+3.16125000000E+009, -1.21512563062E+000, +0.00000000000E+000
+3.17312500000E+009, -1.22319516774E+000, +0.00000000000E+000
+3.18500000000E+009, -1.21514476254E+000, +0.00000000000E+000
+3.19687500000E+009, -1.21790597215E+000, +0.00000000000E+000
+3.20875000000E+009, -1.20959240655E+000, +0.00000000000E+000
+3.22062500000E+009, -1.20368931654E+000, +0.00000000000E+000
+3.23250000000E+009, -1.19904031422E+000, +0.00000000000E+000
+3.24437500000E+009, -1.19966919014E+000, +0.00000000000E+000
+3.25625000000E+009, -1.20223705603E+000, +0.00000000000E+000
+3.26812500000E+009, -1.20373537872E+000, +0.00000000000E+000
+3.28000000000E+009, -1.22395113200E+000, +0.00000000000E+000
+3.29187500000E+009, -1.21204308167E+000, +0.00000000000E+000
+3.30375000000E+009, -1.22924595924E+000, +0.00000000000E+000
+3.31562500000E+009, -1.21064421826E+000, +0.00000000000E+000
+3.32750000000E+009, -1.19884249295E+000, +0.00000000000E+000
+3.33937500000E+009, -1.19504079607E+000, +0.00000000000E+000
+3.35125000000E+009, -1.17403610916E+000, +0.00000000000E+000
+3.36312500000E+009, -1.16330383424E+000, +0.00000000000E+000
+3.37500000000E+009, -1.15156704401E+000, +0.00000000000E+000
+3.38687500000E+009, -1.14634680982E+000, +0.00000000000E+000
+3.39875000000E+009, -1.13240790898E+000, +0.00000000000E+000
+3.41062500000E+009, -1.13621067115E+000, +0.00000000000E+000
+3.42250000000E+009, -1.14198187161E+000, +0.00000000000E+000
+3.43437500000E+009, -1.13684367148E+000, +0.00000000000E+000
+3.44625000000E+009, -1.13817924775E+000, +0.00000000000E+000
+3.45812500000E+009, -1.14376246001E+000, +0.00000000000E+000
+3.47000000000E+009, -1.14361973769E+000, +0.00000000000E+000
+3.48187500000E+009, -1.16160782467E+000, +0.00000000000E+000
+3.49375000000E+009, -1.14216401444E+000, +0.00000000000E+000
+3.50562500000E+009, -1.14453329658E+000, +0.00000000000E+000
+3.51750000000E+009, -1.12882250937E+000, +0.00000000000E+000
+3.52937500000E+009, -1.14066597711E+000, +0.00000000000E+000
+3.54125000000E+009, -1.12219064967E+000, +0.00000000000E+000
+3.55312500000E+009, -1.13401200596E+000, +0.00000000000E+000
+3.56500000000E+009, -1.13865661228E+000, +0.00000000000E+000
+3.57687500000E+009, -1.13934260126E+000, +0.00000000000E+000
+3.58875000000E+009, -1.13887283930E+000, +0.00000000000E+000
+3.60062500000E+009, -1.14037223160E+000, +0.00000000000E+000
+3.61250000000E+009, -1.14738168404E+000, +0.00000000000E+000
+3.62437500000E+009, -1.13482163537E+000, +0.00000000000E+000
+3.63625000000E+009, -1.13160654995E+000, +0.00000000000E+000
+3.64812500000E+009, -1.14551622939E+000, +0.00000000000E+000
+3.66000000000E+009, -1.14336079464E+000, +0.00000000000E+000
+3.67187500000E+009, -1.13858200250E+000, +0.00000000000E+000
+3.68375000000E+009, -1.12916274508E+000, +0.00000000000E+000
+3.69562500000E+009, -1.13037342318E+000, +0.00000000000E+000
+3.70750000000E+009, -1.12304886874E+000, +0.00000000000E+000
+3.71937500000E+009, -1.12635330155E+000, +0.00000000000E+000
+3.73125000000E+009, -1.12250586676E+000, +0.00000000000E+000
+3.74312500000E+009, -1.12882128415E+000, +0.00000000000E+000
+3.75500000000E+009, -1.12780117654E+000, +0.00000000000E+000
+3.76687500000E+009, -1.13065973978E+000, +0.00000000000E+000
+3.77875000000E+009, -1.13006958525E+000, +0.00000000000E+000
+3.79062500000E+009, -1.12692556664E+000, +0.00000000000E+000
+3.80250000000E+009, -1.13580124916E+000, +0.00000000000E+000
+3.81437500000E+009, -1.12725809083E+000, +0.00000000000E+000
+3.82625000000E+009, -1.10840504510E+000, +0.00000000000E+000
+3.83812500000E+009, -1.10779910398E+000, +0.00000000000E+000
+3.85000000000E+009, -1.09202211286E+000, +0.00000000000E+000
+3.86187500000E+009, -1.10432620425E+000, +0.00000000000E+000
+3.87375000000E+009, -1.09422701135E+000, +0.00000000000E+000
+3.88562500000E+009, -1.10214050936E+000, +0.00000000000E+000
+3.89750000000E+009, -1.11173945716E+000, +0.00000000000E+000
+3.90937500000E+009, -1.12258778114E+000, +0.00000000000E+000
+3.92125000000E+009, -1.13565978803E+000, +0.00000000000E+000
+3.93312500000E+009, -1.16721271903E+000, +0.00000000000E+000
+3.94500000000E+009, -1.17905388563E+000, +0.00000000000E+000
+3.95687500000E+009, -1.19672669493E+000, +0.00000000000E+000
+3.96875000000E+009, -1.22531665406E+000, +0.00000000000E+000
+3.98062500000E+009, -1.24215821994E+000, +0.00000000000E+000
+3.99250000000E+009, -1.26399060276E+000, +0.00000000000E+000
+4.00437500000E+009, -1.27464960981E+000, +0.00000000000E+000
+4.01625000000E+009, -1.27544475567E+000, +0.00000000000E+000
+4.02812500000E+009, -1.26942282659E+000, +0.00000000000E+000
+4.04000000000E+009, -1.27364107772E+000, +0.00000000000E+000
+4.05187500000E+009, -1.27309972353E+000, +0.00000000000E+000
+4.06375000000E+009, -1.27639408096E+000, +0.00000000000E+000
+4.07562500000E+009, -1.26805912780E+000, +0.00000000000E+000
+4.08750000000E+009, -1.28227903150E+000, +0.00000000000E+000
+4.09937500000E+009, -1.26857774732E+000, +0.00000000000E+000
+4.11125000000E+009, -1.26858891403E+000, +0.00000000000E+000
+4.12312500000E+009, -1.26437386102E+000, +0.00000000000E+000
+4.13500000000E+009, -1.24313123184E+000, +0.00000000000E+000
+4.14687500000E+009, -1.23048407898E+000, +0.00000000000E+000
+4.15875000000E+009, -1.23189613341E+000, +0.00000000000E+000
+4.17062500000E+009, -1.20105982525E+000, +0.00000000000E+000
+4.18250000000E+009, -1.18187239366E+000, +0.00000000000E+000
+4.19437500000E+009, -1.17416095757E+000, +0.00000000000E+000
+4.20625000000E+009, -1.15893209121E+000, +0.00000000000E+000
+4.21812500000E+009, -1.15137374019E+000, +0.00000000000E+000
+4.23000000000E+009, -1.15386618656E+000, +0.00000000000E+000
+4.24187500000E+009, -1.14896898019E+000, +0.00000000000E+000
+4.25375000000E+009, -1.16495651535E+000, +0.00000000000E+000
+4.26562500000E+009, -1.17986897738E+000, +0.00000000000E+000
+4.27750000000E+009, -1.18019733976E+000, +0.00000000000E+000
+4.28937500000E+009, -1.19063593054E+000, +0.00000000000E+000
+4.30125000000E+009, -1.21240039347E+000, +0.00000000000E+000
+4.31312500000E+009, -1.21005673581E+000, +0.00000000000E+000
+4.32500000000E+009, -1.22062712758E+000, +0.00000000000E+000
+4.33687500000E+009, -1.21348070913E+000, +0.00000000000E+000
+4.34875000000E+009, -1.21318085540E+000, +0.00000000000E+000
+4.36062500000E+009, -1.21637843150E+000, +0.00000000000E+000
+4.37250000000E+009, -1.20941035631E+000, +0.00000000000E+000
+4.38437500000E+009, -1.20219195360E+000, +0.00000000000E+000
+4.39625000000E+009, -1.20523721366E+000, +0.00000000000E+000
+4.40812500000E+009, -1.21403318365E+000, +0.00000000000E+000
+4.42000000000E+009, -1.20970304339E+000, +0.00000000000E+000
+4.43187500000E+009, -1.21250451253E+000, +0.00000000000E+000
+4.44375000000E+009, -1.21150444289E+000, +0.00000000000E+000
+4.45562500000E+009, -1.21171443536E+000, +0.00000000000E+000
+4.46750000000E+009, -1.21414162926E+000, +0.00000000000E+000
+4.47937500000E+009, -1.20547259277E+000, +0.00000000000E+000
+4.49125000000E+009, -1.19636972370E+000, +0.00000000000E+000
+4.50312500000E+009, -1.19566976980E+000, +0.00000000000E+000
+4.51500000000E+009, -1.18419350911E+000, +0.00000000000E+000
+4.52687500000E+009, -1.18392301557E+000, +0.00000000000E+000
+4.53875000000E+009, -1.19218123205E+000, +0.00000000000E+000
+4.55062500000E+009, -1.19847801502E+000, +0.00000000000E+000
+4.56250000000E+009, -1.19112195020E+000, +0.00000000000E+000
+4.57437500000E+009, -1.19644782966E+000, +0.00000000000E+000
+4.58625000000E+009, -1.21404172255E+000, +0.00000000000E+000
+4.59812500000E+009, -1.21356021233E+000, +0.00000000000E+000
+4.61000000000E+009, -1.21997714083E+000, +0.00000000000E+000
+4.62187500000E+009, -1.23356621396E+000, +0.00000000000E+000
+4.63375000000E+009, -1.23572962162E+000, +0.00000000000E+000
+4.64562500000E+009, -1.22977109363E+000, +0.00000000000E+000
+4.65750000000E+009, -1.21980474460E+000, +0.00000000000E+000
+4.66937500000E+009, -1.23007703434E+000, +0.00000000000E+000
+4.68125000000E+009, -1.22630049934E+000, +0.00000000000E+000
+4.69312500000E+009, -1.22068060049E+000, +0.00000000000E+000
+4.70500000000E+009, -1.22263776982E+000, +0.00000000000E+000
+4.71687500000E+009, -1.23275857402E+000, +0.00000000000E+000
+4.72875000000E+009, -1.21420044460E+000, +0.00000000000E+000
+4.74062500000E+009, -1.22742684835E+000, +0.00000000000E+000
+4.75250000000E+009, -1.24633747796E+000, +0.00000000000E+000
+4.76437500000E+009, -1.23830522600E+000, +0.00000000000E+000
+4.77625000000E+009, -1.25057076043E+000, +0.00000000000E+000
+4.78812500000E+009, -1.27398315905E+000, +0.00000000000E+000
+4.80000000000E+009, -1.28006873449E+000, +0.00000000000E+000
+4.81187500000E+009, -1.28092442858E+000, +0.00000000000E+000
+4.82375000000E+009, -1.28345584690E+000, +0.00000000000E+000
+4.83562500000E+009, -1.28795875123E+000, +0.00000000000E+000
+4.84750000000E+009, -1.27706190721E+000, +0.00000000000E+000
+4.85937500000E+009, -1.28146427271E+000, +0.00000000000E+000
+4.87125000000E+009, -1.28298834994E+000, +0.00000000000E+000
+4.88312500000E+009, -1.28560848416E+000, +0.00000000000E+000
+4.89500000000E+009, -1.27869965256E+000, +0.00000000000E+000
+4.90687500000E+009, -1.27106981454E+000, +0.00000000000E+000
+4.91875000000E+009, -1.26235857151E+000, +0.00000000000E+000
+4.93062500000E+009, -1.27264336434E+000, +0.00000000000E+000
+4.94250000000E+009, -1.27913799735E+000, +0.00000000000E+000
+4.95437500000E+009, -1.29057127445E+000, +0.00000000000E+000
+4.96625000000E+009, -1.30040270164E+000, +0.00000000000E+000
+4.97812500000E+009, -1.31933809011E+000, +0.00000000000E+000
+4.99000000000E+009, -1.30717106176E+000, +0.00000000000E+000
+5.00187500000E+009, -1.29180780219E+000, +0.00000000000E+000
+5.01375000000E+009, -1.29648379604E+000, +0.00000000000E+000
+5.02562500000E+009, -1.28407247505E+000, +0.00000000000E+000
+5.03750000000E+009, -1.27869866793E+000, +0.00000000000E+000
+5.04937500000E+009, -1.25773193617E+000, +0.00000000000E+000
+5.06125000000E+009, -1.25452956202E+000, +0.00000000000E+000
+5.07312500000E+009, -1.25930739822E+000, +0.00000000000E+000
+5.08500000000E+009, -1.26088710081E+000, +0.00000000000E+000
+5.09687500000E+009, -1.26053641870E+000, +0.00000000000E+000
+5.10875000000E+009, -1.26826425765E+000, +0.00000000000E+000
+5.12062500000E+009, -1.28232746152E+000, +0.00000000000E+000
+5.13250000000E+009, -1.30378218206E+000, +0.00000000000E+000
+5.14437500000E+009, -1.30572310170E+000, +0.00000000000E+000
+5.15625000000E+009, -1.33564443071E+000, +0.00000000000E+000
+5.16812500000E+009, -1.33497997844E+000, +0.00000000000E+000
+5.18000000000E+009, -1.35384574515E+000, +0.00000000000E+000
+5.19187500000E+009, -1.36276994877E+000, +0.00000000000E+000
+5.20375000000E+009, -1.36727557288E+000, +0.00000000000E+000
+5.21562500000E+009, -1.38394739281E+000, +0.00000000000E+000
+5.22750000000E+009, -1.38960602065E+000, +0.00000000000E+000
+5.23937500000E+009, -1.40935164348E+000, +0.00000000000E+000
+5.25125000000E+009, -1.42316118497E+000, +0.00000000000E+000
+5.26312500000E+009, -1.44159351068E+000, +0.00000000000E+000
+5.27500000000E+009, -1.44067549293E+000, +0.00000000000E+000
+5.28687500000E+009, -1.43903250844E+000, +0.00000000000E+000
+5.29875000000E+009, -1.44053024130E+000, +0.00000000000E+000
+5.31062500000E+009, -1.41990062975E+000, +0.00000000000E+000
+5.32250000000E+009, -1.40540841126E+000, +0.00000000000E+000
+5.33437500000E+009, -1.38750421862E+000, +0.00000000000E+000
+5.34625000000E+009, -1.36469736551E+000, +0.00000000000E+000
+5.35812500000E+009, -1.34194611295E+000, +0.00000000000E+000
+5.37000000000E+009, -1.32074063318E+000, +0.00000000000E+000
+5.38187500000E+009, -1.31050912420E+000, +0.00000000000E+000
+5.39375000000E+009, -1.31414130953E+000, +0.00000000000E+000
+5.40562500000E+009, -1.32412229209E+000, +0.00000000000E+000
+5.41750000000E+009, -1.32943725048E+000, +0.00000000000E+000
+5.42937500000E+009, -1.33837446008E+000, +0.00000000000E+000
+5.44125000000E+009, -1.36680532601E+000, +0.00000000000E+000
+5.45312500000E+009, -1.39122545160E+000, +0.00000000000E+000
+5.46500000000E+009, -1.40848404598E+000, +0.00000000000E+000
+5.47687500000E+009, -1.41393155450E+000, +0.00000000000E+000
+5.48875000000E+009, -1.42736095083E+000, +0.00000000000E+000
+5.50062500000E+009, -1.44390171800E+000, +0.00000000000E+000
+5.51250000000E+009, -1.44185574271E+000, +0.00000000000E+000
+5.52437500000E+009, -1.44406393550E+000, +0.00000000000E+000
+5.53625000000E+009, -1.45023836381E+000, +0.00000000000E+000
+5.54812500000E+009, -1.45989306129E+000, +0.00000000000E+000
+5.56000000000E+009, -1.47127918768E+000, +0.00000000000E+000
+5.57187500000E+009, -1.47623735769E+000, +0.00000000000E+000
+5.58375000000E+009, -1.47185820079E+000, +0.00000000000E+000
+5.59562500000E+009, -1.48055438774E+000, +0.00000000000E+000
+5.60750000000E+009, -1.48189753808E+000, +0.00000000000E+000
+5.61937500000E+009, -1.47638872829E+000, +0.00000000000E+000
+5.63125000000E+009, -1.46429440777E+000, +0.00000000000E+000
+5.64312500000E+009, -1.45857335345E+000, +0.00000000000E+000
+5.65500000000E+009, -1.43709007621E+000, +0.00000000000E+000
+5.66687500000E+009, -1.43225457297E+000, +0.00000000000E+000
+5.67875000000E+009, -1.41666140408E+000, +0.00000000000E+000
+5.69062500000E+009, -1.41766901230E+000, +0.00000000000E+000
+5.70250000000E+009, -1.40155441002E+000, +0.00000000000E+000
+5.71437500000E+009, -1.40262687627E+000, +0.00000000000E+000
+5.72625000000E+009, -1.39743610103E+000, +0.00000000000E+000
+5.73812500000E+009, -1.39690596115E+000, +0.00000000000E+000
+5.75000000000E+009, -1.42093467096E+000, +0.00000000000E+000
+5.76187500000E+009, -1.42108845287E+000, +0.00000000000E+000
+5.77375000000E+009, -1.41967223119E+000, +0.00000000000E+000
+5.78562500000E+009, -1.42205691727E+000, +0.00000000000E+000
+5.79750000000E+009, -1.43895356074E+000, +0.00000000000E+000
+5.80937500000E+009, -1.43373280441E+000, +0.00000000000E+000
+5.82125000000E+009, -1.44100477277E+000, +0.00000000000E+000
+5.83312500000E+009, -1.43484000609E+000, +0.00000000000E+000
+5.84500000000E+009, -1.44052427204E+000, +0.00000000000E+000
+5.85687500000E+009, -1.43690951958E+000, +0.00000000000E+000
+5.86875000000E+009, -1.45896484315E+000, +0.00000000000E+000
+5.88062500000E+009, -1.45941543067E+000, +0.00000000000E+000
+5.89250000000E+009, -1.47581420923E+000, +0.00000000000E+000
+5.90437500000E+009, -1.48895609619E+000, +0.00000000000E+000
+5.91625000000E+009, -1.50294109666E+000, +0.00000000000E+000
+5.92812500000E+009, -1.53168708096E+000, +0.00000000000E+000
+5.94000000000E+009, -1.54099402079E+000, +0.00000000000E+000
+5.95187500000E+009, -1.54531556551E+000, +0.00000000000E+000
+5.96375000000E+009, -1.54992385976E+000, +0.00000000000E+000
+5.97562500000E+009, -1.53855241618E+000, +0.00000000000E+000
+5.98750000000E+009, -1.52807856180E+000, +0.00000000000E+000
+5.99937500000E+009, -1.52298735578E+000, +0.00000000000E+000
+6.01125000000E+009, -1.50159870740E+000, +0.00000000000E+000
+6.02312500000E+009, -1.49101331375E+000, +0.00000000000E+000
+6.03500000000E+009, -1.47866102385E+000, +0.00000000000E+000
+6.04687500000E+009, -1.48071521793E+000, +0.00000000000E+000
+6.05875000000E+009, -1.48605286544E+000, +0.00000000000E+000
+6.07062500000E+009, -1.49593766676E+000, +0.00000000000E+000
+6.08250000000E+009, -1.49745016934E+000, +0.00000000000E+000
+6.09437500000E+009, -1.51460054605E+000, +0.00000000000E+000
+6.10625000000E+009, -1.51961189282E+000, +0.00000000000E+000
+6.11812500000E+009, -1.52341455088E+000, +0.00000000000E+000
+6.13000000000E+009, -1.52017831751E+000, +0.00000000000E+000
+6.14187500000E+009, -1.50626463445E+000, +0.00000000000E+000
+6.15375000000E+009, -1.49776209696E+000, +0.00000000000E+000
+6.16562500000E+009, -1.49639400897E+000, +0.00000000000E+000
+6.17750000000E+009, -1.49814895523E+000, +0.00000000000E+000
+6.18937500000E+009, -1.49557405599E+000, +0.00000000000E+000
+6.20125000000E+009, -1.47844304191E+000, +0.00000000000E+000
+6.21312500000E+009, -1.48279032046E+000, +0.00000000000E+000
+6.22500000000E+009, -1.50741662958E+000, +0.00000000000E+000
+6.23687500000E+009, -1.51383314880E+000, +0.00000000000E+000
+6.24875000000E+009, -1.53761438269E+000, +0.00000000000E+000
+6.26062500000E+009, -1.54571618460E+000, +0.00000000000E+000
+6.27250000000E+009, -1.55398300971E+000, +0.00000000000E+000
+6.28437500000E+009, -1.56940572903E+000, +0.00000000000E+000
+6.29625000000E+009, -1.57389802588E+000, +0.00000000000E+000
+6.30812500000E+009, -1.57961098116E+000, +0.00000000000E+000
+6.32000000000E+009, -1.56779059235E+000, +0.00000000000E+000
+6.33187500000E+009, -1.57341780406E+000, +0.00000000000E+000
+6.34375000000E+009, -1.57168292742E+000, +0.00000000000E+000
+6.35562500000E+009, -1.58428289640E+000, +0.00000000000E+000
+6.36750000000E+009, -1.57760263370E+000, +0.00000000000E+000
+6.37937500000E+009, -1.59735584541E+000, +0.00000000000E+000
+6.39125000000E+009, -1.60892529901E+000, +0.00000000000E+000
+6.40312500000E+009, -1.60909574889E+000, +0.00000000000E+000
+6.41500000000E+009, -1.62772923581E+000, +0.00000000000E+000
+6.42687500000E+009, -1.63463709024E+000, +0.00000000000E+000
+6.43875000000E+009, -1.62165511987E+000, +0.00000000000E+000
+6.45062500000E+009, -1.61855522372E+000, +0.00000000000E+000
+6.46250000000E+009, -1.59354221542E+000, +0.00000000000E+000
+6.47437500000E+009, -1.57443641353E+000, +0.00000000000E+000
+6.48625000000E+009, -1.55966545861E+000, +0.00000000000E+000
+6.49812500000E+009, -1.53534231293E+000, +0.00000000000E+000
+6.51000000000E+009, -1.52101820969E+000, +0.00000000000E+000
+6.52187500000E+009, -1.51696763263E+000, +0.00000000000E+000
+6.53375000000E+009, -1.50706832942E+000, +0.00000000000E+000
+6.54562500000E+009, -1.50567777297E+000, +0.00000000000E+000
+6.55750000000E+009, -1.51006691492E+000, +0.00000000000E+000
+6.56937500000E+009, -1.51115023484E+000, +0.00000000000E+000
+6.58125000000E+009, -1.52533239846E+000, +0.00000000000E+000
+6.59312500000E+009, -1.54131578621E+000, +0.00000000000E+000
+6.60500000000E+009, -1.54752785948E+000, +0.00000000000E+000
+6.61687500000E+009, -1.54832414314E+000, +0.00000000000E+000
+6.62875000000E+009, -1.55329211932E+000, +0.00000000000E+000
+6.64062500000E+009, -1.55257239583E+000, +0.00000000000E+000
+6.65250000000E+009, -1.55601531610E+000, +0.00000000000E+000
+6.66437500000E+009, -1.56822619506E+000, +0.00000000000E+000
+6.67625000000E+009, -1.56066601989E+000, +0.00000000000E+000
+6.68812500000E+009, -1.56624437544E+000, +0.00000000000E+000
+6.70000000000E+009, -1.56448386321E+000, +0.00000000000E+000
+6.71187500000E+009, -1.56918813146E+000, +0.00000000000E+000
+6.72375000000E+009, -1.57095432218E+000, +0.00000000000E+000
+6.73562500000E+009, -1.57063646761E+000, +0.00000000000E+000
+6.74750000000E+009, -1.56579891344E+000, +0.00000000000E+000
+6.75937500000E+009, -1.55831737577E+000, +0.00000000000E+000
+6.77125000000E+009, -1.55488019095E+000, +0.00000000000E+000
+6.78312500000E+009, -1.54891201398E+000, +0.00000000000E+000
+6.79500000000E+009, -1.54200365421E+000, +0.00000000000E+000
+6.80687500000E+009, -1.52526966784E+000, +0.00000000000E+000
+6.81875000000E+009, -1.52131469144E+000, +0.00000000000E+000
+6.83062500000E+009, -1.52630965460E+000, +0.00000000000E+000
+6.84250000000E+009, -1.52385816789E+000, +0.00000000000E+000
+6.85437500000E+009, -1.53163928584E+000, +0.00000000000E+000
+6.86625000000E+009, -1.53508746274E+000, +0.00000000000E+000
+6.87812500000E+009, -1.54326321243E+000, +0.00000000000E+000
+6.89000000000E+009, -1.55886770448E+000, +0.00000000000E+000
+6.90187500000E+009, -1.57017688389E+000, +0.00000000000E+000
+6.91375000000E+009, -1.56917346562E+000, +0.00000000000E+000
+6.92562500000E+009, -1.57750631950E+000, +0.00000000000E+000
+6.93750000000E+009, -1.57849078068E+000, +0.00000000000E+000
+6.94937500000E+009, -1.58676445576E+000, +0.00000000000E+000
+6.96125000000E+009, -1.58677130039E+000, +0.00000000000E+000
+6.97312500000E+009, -1.57839611033E+000, +0.00000000000E+000
+6.98500000000E+009, -1.58675251164E+000, +0.00000000000E+000
+6.99687500000E+009, -1.58164440980E+000, +0.00000000000E+000
+7.00875000000E+009, -1.60454141719E+000, +0.00000000000E+000
+7.02062500000E+009, -1.62079600549E+000, +0.00000000000E+000
+7.03250000000E+009, -1.64697020288E+000, +0.00000000000E+000
+7.04437500000E+009, -1.65464726037E+000, +0.00000000000E+000
+7.05625000000E+009, -1.67539278553E+000, +0.00000000000E+000
+7.06812500000E+009, -1.69059317742E+000, +0.00000000000E+000
+7.08000000000E+009, -1.70840655736E+000, +0.00000000000E+000
+7.09187500000E+009, -1.69408497533E+000, +0.00000000000E+000
+7.10375000000E+009, -1.69076641137E+000, +0.00000000000E+000
+7.11562500000E+009, -1.66919206888E+000, +0.00000000000E+000
+7.12750000000E+009, -1.64350443949E+000, +0.00000000000E+000
+7.13937500000E+009, -1.62366808404E+000, +0.00000000000E+000
+7.15125000000E+009, -1.59269897720E+000, +0.00000000000E+000
+7.16312500000E+009, -1.56642652503E+000, +0.00000000000E+000
+7.17500000000E+009, -1.54748521349E+000, +0.00000000000E+000
+7.18687500000E+009, -1.54239199757E+000, +0.00000000000E+000
+7.19875000000E+009, -1.56213601180E+000, +0.00000000000E+000
+7.21062500000E+009, -1.57785439719E+000, +0.00000000000E+000
+7.22250000000E+009, -1.60671326095E+000, +0.00000000000E+000
+7.23437500000E+009, -1.63193495991E+000, +0.00000000000E+000
+7.24625000000E+009, -1.64620110462E+000, +0.00000000000E+000
+7.25812500000E+009, -1.67027058366E+000, +0.00000000000E+000
+7.27000000000E+009, -1.67099205876E+000, +0.00000000000E+000
+7.28187500000E+009, -1.68376206057E+000, +0.00000000000E+000
+7.29375000000E+009, -1.67382854736E+000, +0.00000000000E+000
+7.30562500000E+009, -1.67242332488E+000, +0.00000000000E+000
+7.31750000000E+009, -1.67820441771E+000, +0.00000000000E+000
+7.32937500000E+009, -1.67532153566E+000, +0.00000000000E+000
+7.34125000000E+009, -1.68379491263E+000, +0.00000000000E+000
+7.35312500000E+009, -1.68932350125E+000, +0.00000000000E+000
+7.36500000000E+009, -1.71448070420E+000, +0.00000000000E+000
+7.37687500000E+009, -1.73639569334E+000, +0.00000000000E+000
+7.38875000000E+009, -1.75945254272E+000, +0.00000000000E+000
+7.40062500000E+009, -1.77853668459E+000, +0.00000000000E+000
+7.41250000000E+009, -1.78980989009E+000, +0.00000000000E+000
+7.42437500000E+009, -1.80551012749E+000, +0.00000000000E+000
+7.43625000000E+009, -1.80928573724E+000, +0.00000000000E+000
+7.44812500000E+009, -1.80541854780E+000, +0.00000000000E+000
+7.46000000000E+009, -1.80006452347E+000, +0.00000000000E+000
+7.47187500000E+009, -1.79031880659E+000, +0.00000000000E+000
+7.48375000000E+009, -1.77220768643E+000, +0.00000000000E+000
+7.49562500000E+009, -1.77583868976E+000, +0.00000000000E+000
+7.50750000000E+009, -1.78840033896E+000, +0.00000000000E+000
+7.51937500000E+009, -1.80447945129E+000, +0.00000000000E+000
+7.53125000000E+009, -1.80568143057E+000, +0.00000000000E+000
+7.54312500000E+009, -1.83923997396E+000, +0.00000000000E+000
+7.55500000000E+009, -1.84149060560E+000, +0.00000000000E+000
+7.56687500000E+009, -1.84559041203E+000, +0.00000000000E+000
+7.57875000000E+009, -1.84285496843E+000, +0.00000000000E+000
+7.59062500000E+009, -1.80479702566E+000, +0.00000000000E+000
+7.60250000000E+009, -1.79102329233E+000, +0.00000000000E+000
+7.61437500000E+009, -1.79076589060E+000, +0.00000000000E+000
+7.62625000000E+009, -1.78451195275E+000, +0.00000000000E+000
+7.63812500000E+009, -1.77987117937E+000, +0.00000000000E+000
+7.65000000000E+009, -1.78765477354E+000, +0.00000000000E+000
+7.66187500000E+009, -1.83312030258E+000, +0.00000000000E+000
+7.67375000000E+009, -1.88560205153E+000, +0.00000000000E+000
+7.68562500000E+009, -1.93706663914E+000, +0.00000000000E+000
+7.69750000000E+009, -1.99905638510E+000, +0.00000000000E+000
+7.70937500000E+009, -2.04167507499E+000, +0.00000000000E+000
+7.72125000000E+009, -2.09045360141E+000, +0.00000000000E+000
+7.73312500000E+009, -2.13629265813E+000, +0.00000000000E+000
+7.74500000000E+009, -2.15635442181E+000, +0.00000000000E+000
+7.75687500000E+009, -2.15952950964E+000, +0.00000000000E+000
+7.76875000000E+009, -2.15544159891E+000, +0.00000000000E+000
+7.78062500000E+009, -2.14109126768E+000, +0.00000000000E+000
+7.79250000000E+009, -2.14268888982E+000, +0.00000000000E+000
+7.80437500000E+009, -2.14790667000E+000, +0.00000000000E+000
+7.81625000000E+009, -2.14981247759E+000, +0.00000000000E+000
+7.82812500000E+009, -2.15752644673E+000, +0.00000000000E+000
+7.84000000000E+009, -2.16691723902E+000, +0.00000000000E+000
+7.85187500000E+009, -2.18569074408E+000, +0.00000000000E+000
+7.86375000000E+009, -2.18437203817E+000, +0.00000000000E+000
+7.87562500000E+009, -2.17963127721E+000, +0.00000000000E+000
+7.88750000000E+009, -2.14541229090E+000, +0.00000000000E+000
+7.89937500000E+009, -2.10736362175E+000, +0.00000000000E+000
+7.91125000000E+009, -2.07547260189E+000, +0.00000000000E+000
+7.92312500000E+009, -2.04476695690E+000, +0.00000000000E+000
+7.93500000000E+009, -1.99167772035E+000, +0.00000000000E+000
+7.94687500000E+009, -1.96214497520E+000, +0.00000000000E+000
+7.95875000000E+009, -1.96082262863E+000, +0.00000000000E+000
+7.97062500000E+009, -1.96957609514E+000, +0.00000000000E+000
+7.98250000000E+009, -2.00390712364E+000, +0.00000000000E+000
+7.99437500000E+009, -2.05954720907E+000, +0.00000000000E+000
+8.00625000000E+009, -2.11400496224E+000, +0.00000000000E+000
+8.01812500000E+009, -2.17422442287E+000, +0.00000000000E+000
+8.03000000000E+009, -2.23989377682E+000, +0.00000000000E+000
+8.04187500000E+009, -2.30569259601E+000, +0.00000000000E+000
+8.05375000000E+009, -2.35749257412E+000, +0.00000000000E+000
+8.06562500000E+009, -2.37247382014E+000, +0.00000000000E+000
+8.07750000000E+009, -2.38861639771E+000, +0.00000000000E+000
+8.08937500000E+009, -2.39721101673E+000, +0.00000000000E+000
+8.10125000000E+009, -2.41051939802E+000, +0.00000000000E+000
+8.11312500000E+009, -2.39123361872E+000, +0.00000000000E+000
+8.12500000000E+009, -2.40348973754E+000, +0.00000000000E+000
+8.13687500000E+009, -2.40759575675E+000, +0.00000000000E+000
+8.14875000000E+009, -2.42421618826E+000, +0.00000000000E+000
+8.16062500000E+009, -2.46549737558E+000, +0.00000000000E+000
+8.17250000000E+009, -2.46455720571E+000, +0.00000000000E+000
+8.18437500000E+009, -2.49802155593E+000, +0.00000000000E+000
+8.19625000000E+009, -2.50203592832E+000, +0.00000000000E+000
+8.20812500000E+009, -2.50661711799E+000, +0.00000000000E+000
+8.22000000000E+009, -2.50596942660E+000, +0.00000000000E+000
+8.23187500000E+009, -2.46994812367E+000, +0.00000000000E+000
+8.24375000000E+009, -2.44305735827E+000, +0.00000000000E+000
+8.25562500000E+009, -2.41688931442E+000, +0.00000000000E+000
+8.26750000000E+009, -2.38166466822E+000, +0.00000000000E+000
+8.27937500000E+009, -2.37757008438E+000, +0.00000000000E+000
+8.29125000000E+009, -2.37888618684E+000, +0.00000000000E+000
+8.30312500000E+009, -2.41512074798E+000, +0.00000000000E+000
+8.31500000000E+009, -2.45483164989E+000, +0.00000000000E+000
+8.32687500000E+009, -2.50283194388E+000, +0.00000000000E+000
+8.33875000000E+009, -2.57907308408E+000, +0.00000000000E+000
+8.35062500000E+009, -2.65069544993E+000, +0.00000000000E+000
+8.36250000000E+009, -2.69813979107E+000, +0.00000000000E+000
+8.37437500000E+009, -2.73896741306E+000, +0.00000000000E+000
+8.38625000000E+009, -2.74989876093E+000, +0.00000000000E+000
+8.39812500000E+009, -2.76871035421E+000, +0.00000000000E+000
+8.41000000000E+009, -2.75238903200E+000, +0.00000000000E+000
+8.42187500000E+009, -2.71713080139E+000, +0.00000000000E+000
+8.43375000000E+009, -2.69920412720E+000, +0.00000000000E+000
+8.44562500000E+009, -2.67247553535E+000, +0.00000000000E+000
+8.45750000000E+009, -2.66782474499E+000, +0.00000000000E+000
+8.46937500000E+009, -2.68530633033E+000, +0.00000000000E+000
+8.48125000000E+009, -2.69293244292E+000, +0.00000000000E+000
+8.49312500000E+009, -2.69829732732E+000, +0.00000000000E+000
+8.50500000000E+009, -2.68339509008E+000, +0.00000000000E+000
+8.51687500000E+009, -2.71508246374E+000, +0.00000000000E+000
+8.52875000000E+009, -2.74462672164E+000, +0.00000000000E+000
+8.54062500000E+009, -2.69133214515E+000, +0.00000000000E+000
+8.55250000000E+009, -2.69703646613E+000, +0.00000000000E+000
+8.56437500000E+009, -2.62032374959E+000, +0.00000000000E+000
+8.57625000000E+009, -2.54515549408E+000, +0.00000000000E+000
+8.58812500000E+009, -2.44694094993E+000, +0.00000000000E+000
+8.60000000000E+009, -2.44614805296E+000, +0.00000000000E+000
+8.61187500000E+009, -2.44800638445E+000, +0.00000000000E+000
+8.62375000000E+009, -2.36281170129E+000, +0.00000000000E+000
+8.63562500000E+009, -2.42706258928E+000, +0.00000000000E+000
+8.64750000000E+009, -2.49726854859E+000, +0.00000000000E+000
+8.65937500000E+009, -2.53883419552E+000, +0.00000000000E+000
+8.67125000000E+009, -2.60640835941E+000, +0.00000000000E+000
+8.68312500000E+009, -2.66527149415E+000, +0.00000000000E+000
+8.69500000000E+009, -2.67253722442E+000, +0.00000000000E+000
+8.70687500000E+009, -2.71877475677E+000, +0.00000000000E+000
+8.71875000000E+009, -2.68873265425E+000, +0.00000000000E+000
+8.73062500000E+009, -2.68773341315E+000, +0.00000000000E+000
+8.74250000000E+009, -2.59467958503E+000, +0.00000000000E+000
+8.75437500000E+009, -2.59743107487E+000, +0.00000000000E+000
+8.76625000000E+009, -2.58046954367E+000, +0.00000000000E+000
+8.77812500000E+009, -2.56827278858E+000, +0.00000000000E+000
+8.79000000000E+009, -2.59785967082E+000, +0.00000000000E+000
+8.80187500000E+009, -2.63264090271E+000, +0.00000000000E+000
+8.81375000000E+009, -2.61238531108E+000, +0.00000000000E+000
+8.82562500000E+009, -2.64750918804E+000, +0.00000000000E+000
+8.83750000000E+009, -2.63334627847E+000, +0.00000000000E+000
+8.84937500000E+009, -2.70549603830E+000, +0.00000000000E+000
+8.86125000000E+009, -2.66554374448E+000, +0.00000000000E+000
+8.87312500000E+009, -2.65299915442E+000, +0.00000000000E+000
+8.88500000000E+009, -2.61175648387E+000, +0.00000000000E+000
+8.89687500000E+009, -2.59428967558E+000, +0.00000000000E+000
+8.90875000000E+009, -2.53170572485E+000, +0.00000000000E+000
+8.92062500000E+009, -2.46752858734E+000, +0.00000000000E+000
+8.93250000000E+009, -2.41286932918E+000, +0.00000000000E+000
+8.94437500000E+009, -2.36457593219E+000, +0.00000000000E+000
+8.95625000000E+009, -2.37239727358E+000, +0.00000000000E+000
+8.96812500000E+009, -2.34895483550E+000, +0.00000000000E+000
+8.98000000000E+009, -2.33211304820E+000, +0.00000000000E+000
+8.99187500000E+009, -2.37621434361E+000, +0.00000000000E+000
+9.00375000000E+009, -2.34958382299E+000, +0.00000000000E+000
+9.01562500000E+009, -2.34465763091E+000, +0.00000000000E+000
+9.02750000000E+009, -2.31615195230E+000, +0.00000000000E+000
+9.03937500000E+009, -2.28360074042E+000, +0.00000000000E+000
+9.05125000000E+009, -2.21988601047E+000, +0.00000000000E+000
+9.06312500000E+009, -2.25380986473E+000, +0.00000000000E+000
+9.07500000000E+009, -2.24751905000E+000, +0.00000000000E+000
+9.08687500000E+009, -2.28675674471E+000, +0.00000000000E+000
+9.09875000000E+009, -2.33096506011E+000, +0.00000000000E+000
+9.11062500000E+009, -2.39819882249E+000, +0.00000000000E+000
+9.12250000000E+009, -2.46385997607E+000, +0.00000000000E+000
+9.13437500000E+009, -2.56979539469E+000, +0.00000000000E+000
+9.14625000000E+009, -2.65700003420E+000, +0.00000000000E+000
+9.15812500000E+009, -2.69296962536E+000, +0.00000000000E+000
+9.17000000000E+009, -2.74556533942E+000, +0.00000000000E+000
+9.18187500000E+009, -2.70142267529E+000, +0.00000000000E+000
+9.19375000000E+009, -2.79187305016E+000, +0.00000000000E+000
+9.20562500000E+009, -2.76128778110E+000, +0.00000000000E+000
+9.21750000000E+009, -2.67634819886E+000, +0.00000000000E+000
+9.22937500000E+009, -2.62720974868E+000, +0.00000000000E+000
+9.24125000000E+009, -2.57402127570E+000, +0.00000000000E+000
+9.25312500000E+009, -2.50210210135E+000, +0.00000000000E+000
+9.26500000000E+009, -2.43915643591E+000, +0.00000000000E+000
+9.27687500000E+009, -2.44759788399E+000, +0.00000000000E+000
+9.28875000000E+009, -2.43379006262E+000, +0.00000000000E+000
+9.30062500000E+009, -2.46272309416E+000, +0.00000000000E+000
+9.31250000000E+009, -2.44372925621E+000, +0.00000000000E+000
+9.32437500000E+009, -2.40120434750E+000, +0.00000000000E+000
+9.33625000000E+009, -2.42952568138E+000, +0.00000000000E+000
+9.34812500000E+009, -2.37653879108E+000, +0.00000000000E+000
+9.36000000000E+009, -2.36273141263E+000, +0.00000000000E+000
+9.37187500000E+009, -2.32660712970E+000, +0.00000000000E+000
+9.38375000000E+009, -2.28227459847E+000, +0.00000000000E+000
+9.39562500000E+009, -2.27935837451E+000, +0.00000000000E+000
+9.40750000000E+009, -2.24007331953E+000, +0.00000000000E+000
+9.41937500000E+009, -2.25989980104E+000, +0.00000000000E+000
+9.43125000000E+009, -2.31196093006E+000, +0.00000000000E+000
+9.44312500000E+009, -2.31296356385E+000, +0.00000000000E+000
+9.45500000000E+009, -2.38844319398E+000, +0.00000000000E+000
+9.46687500000E+009, -2.44217851151E+000, +0.00000000000E+000
+9.47875000000E+009, -2.46859478549E+000, +0.00000000000E+000
+9.49062500000E+009, -2.51964031183E+000, +0.00000000000E+000
+9.50250000000E+009, -2.58930639894E+000, +0.00000000000E+000
+9.51437500000E+009, -2.55211373067E+000, +0.00000000000E+000
+9.52625000000E+009, -2.56444216907E+000, +0.00000000000E+000
+9.53812500000E+009, -2.57174737023E+000, +0.00000000000E+000
+9.55000000000E+009, -2.54738954218E+000, +0.00000000000E+000
+9.56187500000E+009, -2.50895905543E+000, +0.00000000000E+000
+9.57375000000E+009, -2.44094584246E+000, +0.00000000000E+000
+9.58562500000E+009, -2.46635922495E+000, +0.00000000000E+000
+9.59750000000E+009, -2.44125587227E+000, +0.00000000000E+000
+9.60937500000E+009, -2.38585007481E+000, +0.00000000000E+000
+9.62125000000E+009, -2.42642442900E+000, +0.00000000000E+000
+9.63312500000E+009, -2.42007263938E+000, +0.00000000000E+000
+9.64500000000E+009, -2.40858271939E+000, +0.00000000000E+000
+9.65687500000E+009, -2.41720106631E+000, +0.00000000000E+000
+9.66875000000E+009, -2.43641064363E+000, +0.00000000000E+000
+9.68062500000E+009, -2.40744459618E+000, +0.00000000000E+000
+9.69250000000E+009, -2.40858764533E+000, +0.00000000000E+000
+9.70437500000E+009, -2.39591661361E+000, +0.00000000000E+000
+9.71625000000E+009, -2.39896814127E+000, +0.00000000000E+000
+9.72812500000E+009, -2.33401624320E+000, +0.00000000000E+000
+9.74000000000E+009, -2.32909898276E+000, +0.00000000000E+000
+9.75187500000E+009, -2.33023662882E+000, +0.00000000000E+000
+9.76375000000E+009, -2.30132334981E+000, +0.00000000000E+000
+9.77562500000E+009, -2.29283796374E+000, +0.00000000000E+000
+9.78750000000E+009, -2.34834743474E+000, +0.00000000000E+000
+9.79937500000E+009, -2.38847118567E+000, +0.00000000000E+000
+9.81125000000E+009, -2.40705091303E+000, +0.00000000000E+000
+9.82312500000E+009, -2.43472794896E+000, +0.00000000000E+000
+9.83500000000E+009, -2.49273090736E+000, +0.00000000000E+000
+9.84687500000E+009, -2.49391719187E+000, +0.00000000000E+000
+9.85875000000E+009, -2.52865278959E+000, +0.00000000000E+000
+9.87062500000E+009, -2.50713276774E+000, +0.00000000000E+000
+9.88250000000E+009, -2.50534945370E+000, +0.00000000000E+000
+9.89437500000E+009, -2.46242128723E+000, +0.00000000000E+000
+9.90625000000E+009, -2.48252024999E+000, +0.00000000000E+000
+9.91812500000E+009, -2.42721236096E+000, +0.00000000000E+000
+9.93000000000E+009, -2.46315239592E+000, +0.00000000000E+000
+9.94187500000E+009, -2.45661513004E+000, +0.00000000000E+000
+9.95375000000E+009, -2.47323534215E+000, +0.00000000000E+000
+9.96562500000E+009, -2.47358149976E+000, +0.00000000000E+000
+9.97750000000E+009, -2.50134356697E+000, +0.00000000000E+000
+9.98937500000E+009, -2.50778284136E+000, +0.00000000000E+000
+1.00012500000E+010, -2.51942383666E+000, +0.00000000000E+000
+1.00131250000E+010, -2.51590216477E+000, +0.00000000000E+000
+1.00250000000E+010, -2.50669795881E+000, +0.00000000000E+000
+1.00368750000E+010, -2.50162408860E+000, +0.00000000000E+000
+1.00487500000E+010, -2.43619423231E+000, +0.00000000000E+000
+1.00606250000E+010, -2.41055876386E+000, +0.00000000000E+000
+1.00725000000E+010, -2.41801245280E+000, +0.00000000000E+000
+1.00843750000E+010, -2.37915774902E+000, +0.00000000000E+000
+1.00962500000E+010, -2.39115616786E+000, +0.00000000000E+000
+1.01081250000E+010, -2.35821701144E+000, +0.00000000000E+000
+1.01200000000E+010, -2.34546330805E+000, +0.00000000000E+000
+1.01318750000E+010, -2.34123795380E+000, +0.00000000000E+000
+1.01437500000E+010, -2.38084681066E+000, +0.00000000000E+000
+1.01556250000E+010, -2.37836784581E+000, +0.00000000000E+000
+1.01675000000E+010, -2.36206153017E+000, +0.00000000000E+000
+1.01793750000E+010, -2.39446974952E+000, +0.00000000000E+000
+1.01912500000E+010, -2.41157417836E+000, +0.00000000000E+000
+1.02031250000E+010, -2.41028205770E+000, +0.00000000000E+000
+1.02150000000E+010, -2.37722274924E+000, +0.00000000000E+000
+1.02268750000E+010, -2.38298177573E+000, +0.00000000000E+000
+1.02387500000E+010, -2.37396603242E+000, +0.00000000000E+000
+1.02506250000E+010, -2.40581806932E+000, +0.00000000000E+000
+1.02625000000E+010, -2.47372048362E+000, +0.00000000000E+000
+1.02743750000E+010, -2.49339435918E+000, +0.00000000000E+000
+1.02862500000E+010, -2.58695223105E+000, +0.00000000000E+000
+1.02981250000E+010, -2.61226184648E+000, +0.00000000000E+000
+1.03100000000E+010, -2.63660189388E+000, +0.00000000000E+000
+1.03218750000E+010, -2.71329238061E+000, +0.00000000000E+000
+1.03337500000E+010, -2.71191892395E+000, +0.00000000000E+000
+1.03456250000E+010, -2.69028794131E+000, +0.00000000000E+000
+1.03575000000E+010, -2.67531198820E+000, +0.00000000000E+000
+1.03693750000E+010, -2.69426518799E+000, +0.00000000000E+000
+1.03812500000E+010, -2.65750579837E+000, +0.00000000000E+000
+1.03931250000E+010, -2.59500763699E+000, +0.00000000000E+000
+1.04050000000E+010, -2.57195051098E+000, +0.00000000000E+000
+1.04168750000E+010, -2.54887638814E+000, +0.00000000000E+000
+1.04287500000E+010, -2.47162307277E+000, +0.00000000000E+000
+1.04406250000E+010, -2.47253688180E+000, +0.00000000000E+000
+1.04525000000E+010, -2.44655785455E+000, +0.00000000000E+000
+1.04643750000E+010, -2.43569619281E+000, +0.00000000000E+000
+1.04762500000E+010, -2.46352943581E+000, +0.00000000000E+000
+1.04881250000E+010, -2.47229425954E+000, +0.00000000000E+000
+1.05000000000E+010, -2.42624274055E+000, +0.00000000000E+000
+1.05118750000E+010, -2.42628091631E+000, +0.00000000000E+000
+1.05237500000E+010, -2.41994519846E+000, +0.00000000000E+000
+1.05356250000E+010, -2.43727713317E+000, +0.00000000000E+000
+1.05475000000E+010, -2.49389185726E+000, +0.00000000000E+000
+1.05593750000E+010, -2.50510392691E+000, +0.00000000000E+000
+1.05712500000E+010, -2.52840755229E+000, +0.00000000000E+000
+1.05831250000E+010, -2.56265374560E+000, +0.00000000000E+000
+1.05950000000E+010, -2.58700737064E+000, +0.00000000000E+000
+1.06068750000E+010, -2.63549016513E+000, +0.00000000000E+000
+1.06187500000E+010, -2.70103804475E+000, +0.00000000000E+000
+1.06306250000E+010, -2.75310185563E+000, +0.00000000000E+000
+1.06425000000E+010, -2.75744795477E+000, +0.00000000000E+000
+1.06543750000E+010, -2.78061453539E+000, +0.00000000000E+000
+1.06662500000E+010, -2.83082799220E+000, +0.00000000000E+000
+1.06781250000E+010, -2.79537200664E+000, +0.00000000000E+000
+1.06900000000E+010, -2.81908023227E+000, +0.00000000000E+000
+1.07018750000E+010, -2.79077189190E+000, +0.00000000000E+000
+1.07137500000E+010, -2.76656121615E+000, +0.00000000000E+000
+1.07256250000E+010, -2.69768419653E+000, +0.00000000000E+000
+1.07375000000E+010, -2.66524128754E+000, +0.00000000000E+000
+1.07493750000E+010, -2.64827931242E+000, +0.00000000000E+000
+1.07612500000E+010, -2.61450068576E+000, +0.00000000000E+000
+1.07731250000E+010, -2.62121907813E+000, +0.00000000000E+000
+1.07850000000E+010, -2.62452135941E+000, +0.00000000000E+000
+1.07968750000E+010, -2.66829176514E+000, +0.00000000000E+000
+1.08087500000E+010, -2.68974038797E+000, +0.00000000000E+000
+1.08206250000E+010, -2.70440420833E+000, +0.00000000000E+000
+1.08325000000E+010, -2.72454470597E+000, +0.00000000000E+000
+1.08443750000E+010, -2.73968648743E+000, +0.00000000000E+000
+1.08562500000E+010, -2.73265338344E+000, +0.00000000000E+000
+1.08681250000E+010, -2.75260722532E+000, +0.00000000000E+000
+1.08800000000E+010, -2.75296727907E+000, +0.00000000000E+000
+1.08918750000E+010, -2.77783140648E+000, +0.00000000000E+000
+1.09037500000E+010, -2.74658652864E+000, +0.00000000000E+000
+1.09156250000E+010, -2.79027059507E+000, +0.00000000000E+000
+1.09275000000E+010, -2.79651009020E+000, +0.00000000000E+000
+1.09393750000E+010, -2.81732116464E+000, +0.00000000000E+000
+1.09512500000E+010, -2.87923837508E+000, +0.00000000000E+000
+1.09631250000E+010, -2.87320737129E+000, +0.00000000000E+000
+1.09750000000E+010, -2.93789967015E+000, +0.00000000000E+000
+1.09868750000E+010, -2.92885207506E+000, +0.00000000000E+000
+1.09987500000E+010, -2.95604893903E+000, +0.00000000000E+000
+1.10106250000E+010, -2.92498596709E+000, +0.00000000000E+000
+1.10225000000E+010, -2.89964745046E+000, +0.00000000000E+000
+1.10343750000E+010, -2.90359283429E+000, +0.00000000000E+000
+1.10462500000E+010, -2.84805010863E+000, +0.00000000000E+000
+1.10581250000E+010, -2.85635116441E+000, +0.00000000000E+000
+1.10700000000E+010, -2.86871178836E+000, +0.00000000000E+000
+1.10818750000E+010, -2.83051008948E+000, +0.00000000000E+000
+1.10937500000E+010, -2.83831501479E+000, +0.00000000000E+000
+1.11056250000E+010, -2.89792744359E+000, +0.00000000000E+000
+1.11175000000E+010, -2.94600706834E+000, +0.00000000000E+000
+1.11293750000E+010, -3.03088617536E+000, +0.00000000000E+000
+1.11412500000E+010, -3.13411316316E+000, +0.00000000000E+000
+1.11531250000E+010, -3.20740911383E+000, +0.00000000000E+000
+1.11650000000E+010, -3.27683097807E+000, +0.00000000000E+000
+1.11768750000E+010, -3.28997777538E+000, +0.00000000000E+000
+1.11887500000E+010, -3.31932587437E+000, +0.00000000000E+000
+1.12006250000E+010, -3.32835247475E+000, +0.00000000000E+000
+1.12125000000E+010, -3.26657693409E+000, +0.00000000000E+000
+1.12243750000E+010, -3.19519169923E+000, +0.00000000000E+000
+1.12362500000E+010, -3.18221638341E+000, +0.00000000000E+000
+1.12481250000E+010, -3.15676245036E+000, +0.00000000000E+000
+1.12600000000E+010, -3.15167882749E+000, +0.00000000000E+000
+1.12718750000E+010, -3.11025792297E+000, +0.00000000000E+000
+1.12837500000E+010, -3.14128049734E+000, +0.00000000000E+000
+1.12956250000E+010, -3.13597824366E+000, +0.00000000000E+000
+1.13075000000E+010, -3.11688942142E+000, +0.00000000000E+000
+1.13193750000E+010, -3.09855219672E+000, +0.00000000000E+000
+1.13312500000E+010, -3.11806515564E+000, +0.00000000000E+000
+1.13431250000E+010, -3.06325459881E+000, +0.00000000000E+000
+1.13550000000E+010, -3.01708730583E+000, +0.00000000000E+000
+1.13668750000E+010, -2.99700748166E+000, +0.00000000000E+000
+1.13787500000E+010, -2.94691617629E+000, +0.00000000000E+000
+1.13906250000E+010, -2.90458242298E+000, +0.00000000000E+000
+1.14025000000E+010, -2.93603506832E+000, +0.00000000000E+000
+1.14143750000E+010, -2.91132813914E+000, +0.00000000000E+000
+1.14262500000E+010, -2.91562157438E+000, +0.00000000000E+000
+1.14381250000E+010, -2.92912353695E+000, +0.00000000000E+000
+1.14500000000E+010, -2.93017791385E+000, +0.00000000000E+000
+1.14618750000E+010, -2.90965078074E+000, +0.00000000000E+000
+1.14737500000E+010, -2.90969164616E+000, +0.00000000000E+000
+1.14856250000E+010, -2.89134736201E+000, +0.00000000000E+000
+1.14975000000E+010, -2.88274259479E+000, +0.00000000000E+000
+1.15093750000E+010, -2.86874001248E+000, +0.00000000000E+000
+1.15212500000E+010, -2.81481680025E+000, +0.00000000000E+000
+1.15331250000E+010, -2.82154859270E+000, +0.00000000000E+000
+1.15450000000E+010, -2.81614842522E+000, +0.00000000000E+000
+1.15568750000E+010, -2.79375368838E+000, +0.00000000000E+000
+1.15687500000E+010, -2.78235424937E+000, +0.00000000000E+000
+1.15806250000E+010, -2.77073448557E+000, +0.00000000000E+000
+1.15925000000E+010, -2.78588370697E+000, +0.00000000000E+000
+1.16043750000E+010, -2.79258653499E+000, +0.00000000000E+000
+1.16162500000E+010, -2.78599888396E+000, +0.00000000000E+000
+1.16281250000E+010, -2.81639949610E+000, +0.00000000000E+000
+1.16400000000E+010, -2.80161251540E+000, +0.00000000000E+000
+1.16518750000E+010, -2.79325682874E+000, +0.00000000000E+000
+1.16637500000E+010, -2.82580071815E+000, +0.00000000000E+000
+1.16756250000E+010, -2.84531527831E+000, +0.00000000000E+000
+1.16875000000E+010, -2.81061380704E+000, +0.00000000000E+000
+1.16993750000E+010, -2.84509818508E+000, +0.00000000000E+000
+1.17112500000E+010, -2.86282848920E+000, +0.00000000000E+000
+1.17231250000E+010, -2.88268301135E+000, +0.00000000000E+000
+1.17350000000E+010, -2.89653140149E+000, +0.00000000000E+000
+1.17468750000E+010, -2.93426745229E+000, +0.00000000000E+000
+1.17587500000E+010, -2.95817690431E+000, +0.00000000000E+000
+1.17706250000E+010, -3.03029585777E+000, +0.00000000000E+000
+1.17825000000E+010, -3.04940163618E+000, +0.00000000000E+000
+1.17943750000E+010, -3.06671745823E+000, +0.00000000000E+000
+1.18062500000E+010, -3.08796532460E+000, +0.00000000000E+000
+1.18181250000E+010, -3.08656409393E+000, +0.00000000000E+000
+1.18300000000E+010, -3.09062171080E+000, +0.00000000000E+000
+1.18418750000E+010, -3.06596007625E+000, +0.00000000000E+000
+1.18537500000E+010, -3.05697525579E+000, +0.00000000000E+000
+1.18656250000E+010, -2.98358922500E+000, +0.00000000000E+000
+1.18775000000E+010, -2.97800521032E+000, +0.00000000000E+000
+1.18893750000E+010, -2.93827411171E+000, +0.00000000000E+000
+1.19012500000E+010, -2.90705061498E+000, +0.00000000000E+000
+1.19131250000E+010, -2.86817937688E+000, +0.00000000000E+000
+1.19250000000E+010, -2.86952835137E+000, +0.00000000000E+000
+1.19368750000E+010, -2.84550101617E+000, +0.00000000000E+000
+1.19487500000E+010, -2.83157818973E+000, +0.00000000000E+000
+1.19606250000E+010, -2.84404543245E+000, +0.00000000000E+000
+1.19725000000E+010, -2.83780313452E+000, +0.00000000000E+000
+1.19843750000E+010, -2.85141168787E+000, +0.00000000000E+000
+1.19962500000E+010, -2.85935126032E+000, +0.00000000000E+000
+1.20081250000E+010, -2.87400885184E+000, +0.00000000000E+000
+1.20200000000E+010, -2.86713058623E+000, +0.00000000000E+000
+1.20318750000E+010, -2.87353409017E+000, +0.00000000000E+000
+1.20437500000E+010, -2.85258716487E+000, +0.00000000000E+000
+1.20556250000E+010, -2.88190023420E+000, +0.00000000000E+000
+1.20675000000E+010, -2.91718394510E+000, +0.00000000000E+000
+1.20793750000E+010, -2.89505136846E+000, +0.00000000000E+000
+1.20912500000E+010, -2.91126353426E+000, +0.00000000000E+000
+1.21031250000E+010, -2.92721931167E+000, +0.00000000000E+000
+1.21150000000E+010, -2.96091033265E+000, +0.00000000000E+000
+1.21268750000E+010, -2.93192744416E+000, +0.00000000000E+000
+1.21387500000E+010, -2.92946775229E+000, +0.00000000000E+000
+1.21506250000E+010, -2.95314278101E+000, +0.00000000000E+000
+1.21625000000E+010, -2.91262500362E+000, +0.00000000000E+000
+1.21743750000E+010, -2.88626989193E+000, +0.00000000000E+000
+1.21862500000E+010, -2.90504447735E+000, +0.00000000000E+000
+1.21981250000E+010, -2.88733462155E+000, +0.00000000000E+000
+1.22100000000E+010, -2.88610058900E+000, +0.00000000000E+000
+1.22218750000E+010, -2.86963762178E+000, +0.00000000000E+000
+1.22337500000E+010, -2.89212576377E+000, +0.00000000000E+000
+1.22456250000E+010, -2.93101699655E+000, +0.00000000000E+000
+1.22575000000E+010, -2.97032838015E+000, +0.00000000000E+000
+1.22693750000E+010, -3.00255873817E+000, +0.00000000000E+000
+1.22812500000E+010, -3.01785735332E+000, +0.00000000000E+000
+1.22931250000E+010, -3.07809602823E+000, +0.00000000000E+000
+1.23050000000E+010, -3.12122464019E+000, +0.00000000000E+000
+1.23168750000E+010, -3.12296727883E+000, +0.00000000000E+000
+1.23287500000E+010, -3.13540750625E+000, +0.00000000000E+000
+1.23406250000E+010, -3.13865200065E+000, +0.00000000000E+000
+1.23525000000E+010, -3.13075083966E+000, +0.00000000000E+000
+1.23643750000E+010, -3.09360509680E+000, +0.00000000000E+000
+1.23762500000E+010, -3.13186905796E+000, +0.00000000000E+000
+1.23881250000E+010, -3.13066626029E+000, +0.00000000000E+000
+1.24000000000E+010, -3.11520267039E+000, +0.00000000000E+000
+1.24118750000E+010, -3.10661192684E+000, +0.00000000000E+000
+1.24237500000E+010, -3.13580539409E+000, +0.00000000000E+000
+1.24356250000E+010, -3.14860782064E+000, +0.00000000000E+000
+1.24475000000E+010, -3.15623049457E+000, +0.00000000000E+000
+1.24593750000E+010, -3.19466443093E+000, +0.00000000000E+000
+1.24712500000E+010, -3.22819095685E+000, +0.00000000000E+000
+1.24831250000E+010, -3.21009298067E+000, +0.00000000000E+000
+1.24950000000E+010, -3.24525207887E+000, +0.00000000000E+000
+1.25068750000E+010, -3.23506153294E+000, +0.00000000000E+000
+1.25187500000E+010, -3.27397679567E+000, +0.00000000000E+000
+1.25306250000E+010, -3.26156744349E+000, +0.00000000000E+000
+1.25425000000E+010, -3.24232529693E+000, +0.00000000000E+000
+1.25543750000E+010, -3.21721016865E+000, +0.00000000000E+000
+1.25662500000E+010, -3.21781038249E+000, +0.00000000000E+000
+1.25781250000E+010, -3.19397093001E+000, +0.00000000000E+000
+1.25900000000E+010, -3.18302857844E+000, +0.00000000000E+000
+1.26018750000E+010, -3.18088210512E+000, +0.00000000000E+000
+1.26137500000E+010, -3.15752442386E+000, +0.00000000000E+000
+1.26256250000E+010, -3.16540277715E+000, +0.00000000000E+000
+1.26375000000E+010, -3.17877637981E+000, +0.00000000000E+000
+1.26493750000E+010, -3.20437940439E+000, +0.00000000000E+000
+1.26612500000E+010, -3.23280817053E+000, +0.00000000000E+000
+1.26731250000E+010, -3.24978333292E+000, +0.00000000000E+000
+1.26850000000E+010, -3.25774273588E+000, +0.00000000000E+000
+1.26968750000E+010, -3.28454638289E+000, +0.00000000000E+000
+1.27087500000E+010, -3.31322814602E+000, +0.00000000000E+000
+1.27206250000E+010, -3.28378780054E+000, +0.00000000000E+000
+1.27325000000E+010, -3.26159580492E+000, +0.00000000000E+000
+1.27443750000E+010, -3.26163770331E+000, +0.00000000000E+000
+1.27562500000E+010, -3.25039542582E+000, +0.00000000000E+000
+1.27681250000E+010, -3.26393184822E+000, +0.00000000000E+000
+1.27800000000E+010, -3.26313858856E+000, +0.00000000000E+000
+1.27918750000E+010, -3.28048684828E+000, +0.00000000000E+000
+1.28037500000E+010, -3.27450718601E+000, +0.00000000000E+000
+1.28156250000E+010, -3.31444880379E+000, +0.00000000000E+000
+1.28275000000E+010, -3.30312260768E+000, +0.00000000000E+000
+1.28393750000E+010, -3.32647292132E+000, +0.00000000000E+000
+1.28512500000E+010, -3.37337084168E+000, +0.00000000000E+000
+1.28631250000E+010, -3.38392942547E+000, +0.00000000000E+000
+1.28750000000E+010, -3.35116472964E+000, +0.00000000000E+000
+1.28868750000E+010, -3.33586056168E+000, +0.00000000000E+000
+1.28987500000E+010, -3.36190226804E+000, +0.00000000000E+000
+1.29106250000E+010, -3.38965288042E+000, +0.00000000000E+000
+1.29225000000E+010, -3.33381916452E+000, +0.00000000000E+000
+1.29343750000E+010, -3.36321866365E+000, +0.00000000000E+000
+1.29462500000E+010, -3.39541162854E+000, +0.00000000000E+000
+1.29581250000E+010, -3.40639594523E+000, +0.00000000000E+000
+1.29700000000E+010, -3.47028398698E+000, +0.00000000000E+000
+1.29818750000E+010, -3.49568549108E+000, +0.00000000000E+000
+1.29937500000E+010, -3.49173919069E+000, +0.00000000000E+000
+1.30056250000E+010, -3.49840100740E+000, +0.00000000000E+000
+1.30175000000E+010, -3.52590907927E+000, +0.00000000000E+000
+1.30293750000E+010, -3.50212965897E+000, +0.00000000000E+000
+1.30412500000E+010, -3.43209046631E+000, +0.00000000000E+000
+1.30531250000E+010, -3.43932263491E+000, +0.00000000000E+000
+1.30650000000E+010, -3.41029130267E+000, +0.00000000000E+000
+1.30768750000E+010, -3.35427311061E+000, +0.00000000000E+000
+1.30887500000E+010, -3.32042602077E+000, +0.00000000000E+000
+1.31006250000E+010, -3.29546394026E+000, +0.00000000000E+000
+1.31125000000E+010, -3.28004840299E+000, +0.00000000000E+000
+1.31243750000E+010, -3.28204667395E+000, +0.00000000000E+000
+1.31362500000E+010, -3.30070903695E+000, +0.00000000000E+000
+1.31481250000E+010, -3.28076146217E+000, +0.00000000000E+000
+1.31600000000E+010, -3.28507621407E+000, +0.00000000000E+000
+1.31718750000E+010, -3.31167531543E+000, +0.00000000000E+000
+1.31837500000E+010, -3.31619511663E+000, +0.00000000000E+000
+1.31956250000E+010, -3.34022125224E+000, +0.00000000000E+000
+1.32075000000E+010, -3.34589543611E+000, +0.00000000000E+000
+1.32193750000E+010, -3.32705514010E+000, +0.00000000000E+000
+1.32312500000E+010, -3.37186978511E+000, +0.00000000000E+000
+1.32431250000E+010, -3.32451499376E+000, +0.00000000000E+000
+1.32550000000E+010, -3.33567046646E+000, +0.00000000000E+000
+1.32668750000E+010, -3.37442182982E+000, +0.00000000000E+000
+1.32787500000E+010, -3.36080401402E+000, +0.00000000000E+000
+1.32906250000E+010, -3.36548661249E+000, +0.00000000000E+000
+1.33025000000E+010, -3.41714799480E+000, +0.00000000000E+000
+1.33143750000E+010, -3.45713665861E+000, +0.00000000000E+000
+1.33262500000E+010, -3.45992098321E+000, +0.00000000000E+000
+1.33381250000E+010, -3.51445422527E+000, +0.00000000000E+000
+1.33500000000E+010, -3.53357365191E+000, +0.00000000000E+000
+1.33618750000E+010, -3.55610761419E+000, +0.00000000000E+000
+1.33737500000E+010, -3.55786690203E+000, +0.00000000000E+000
+1.33856250000E+010, -3.61411038993E+000, +0.00000000000E+000
+1.33975000000E+010, -3.63326732222E+000, +0.00000000000E+000
+1.34093750000E+010, -3.63679052821E+000, +0.00000000000E+000
+1.34212500000E+010, -3.63926522858E+000, +0.00000000000E+000
+1.34331250000E+010, -3.62314574995E+000, +0.00000000000E+000
+1.34450000000E+010, -3.61473712602E+000, +0.00000000000E+000
+1.34568750000E+010, -3.60437499640E+000, +0.00000000000E+000
+1.34687500000E+010, -3.64690200876E+000, +0.00000000000E+000
+1.34806250000E+010, -3.68179611182E+000, +0.00000000000E+000
+1.34925000000E+010, -3.70773627130E+000, +0.00000000000E+000
+1.35043750000E+010, -3.72214130807E+000, +0.00000000000E+000
+1.35162500000E+010, -3.73192377713E+000, +0.00000000000E+000
+1.35281250000E+010, -3.79321407344E+000, +0.00000000000E+000
+1.35400000000E+010, -3.81787360503E+000, +0.00000000000E+000
+1.35518750000E+010, -3.84573020089E+000, +0.00000000000E+000
+1.35637500000E+010, -3.88536834494E+000, +0.00000000000E+000
+1.35756250000E+010, -3.86927122049E+000, +0.00000000000E+000
+1.35875000000E+010, -3.92425606434E+000, +0.00000000000E+000
+1.35993750000E+010, -3.92369780793E+000, +0.00000000000E+000
+1.36112500000E+010, -3.96375313720E+000, +0.00000000000E+000
+1.36231250000E+010, -4.01907399262E+000, +0.00000000000E+000
+1.36350000000E+010, -4.02307280887E+000, +0.00000000000E+000
+1.36468750000E+010, -4.07181433880E+000, +0.00000000000E+000
+1.36587500000E+010, -4.12924097383E+000, +0.00000000000E+000
+1.36706250000E+010, -4.13149786279E+000, +0.00000000000E+000
+1.36825000000E+010, -4.20764522913E+000, +0.00000000000E+000
+1.36943750000E+010, -4.23557140536E+000, +0.00000000000E+000
+1.37062500000E+010, -4.23528251077E+000, +0.00000000000E+000
+1.37181250000E+010, -4.21113317430E+000, +0.00000000000E+000
+1.37300000000E+010, -4.24184228499E+000, +0.00000000000E+000
+1.37418750000E+010, -4.21301056416E+000, +0.00000000000E+000
+1.37537500000E+010, -4.26628103324E+000, +0.00000000000E+000
+1.37656250000E+010, -4.28223581390E+000, +0.00000000000E+000
+1.37775000000E+010, -4.32462732311E+000, +0.00000000000E+000
+1.37893750000E+010, -4.41473917144E+000, +0.00000000000E+000
+1.38012500000E+010, -4.50766848338E+000, +0.00000000000E+000
+1.38131250000E+010, -4.64859913005E+000, +0.00000000000E+000
+1.38250000000E+010, -4.75191794540E+000, +0.00000000000E+000
+1.38368750000E+010, -4.85422930142E+000, +0.00000000000E+000
+1.38487500000E+010, -4.90976166103E+000, +0.00000000000E+000
+1.38606250000E+010, -4.97811006302E+000, +0.00000000000E+000
+1.38725000000E+010, -4.99942393257E+000, +0.00000000000E+000
+1.38843750000E+010, -4.97876824752E+000, +0.00000000000E+000
+1.38962500000E+010, -4.95962187864E+000, +0.00000000000E+000
+1.39081250000E+010, -5.00910863279E+000, +0.00000000000E+000
+1.39200000000E+010, -4.96194013912E+000, +0.00000000000E+000
+1.39318750000E+010, -4.97106441239E+000, +0.00000000000E+000
+1.39437500000E+010, -4.99227788830E+000, +0.00000000000E+000
+1.39556250000E+010, -4.99187614118E+000, +0.00000000000E+000
+1.39675000000E+010, -5.03980237864E+000, +0.00000000000E+000
+1.39793750000E+010, -5.11231365028E+000, +0.00000000000E+000
+1.39912500000E+010, -5.20223356496E+000, +0.00000000000E+000
+1.40031250000E+010, -5.25658633559E+000, +0.00000000000E+000
+1.40150000000E+010, -5.33399720362E+000, +0.00000000000E+000
+1.40268750000E+010, -5.34684527321E+000, +0.00000000000E+000
+1.40387500000E+010, -5.31579470679E+000, +0.00000000000E+000
+1.40506250000E+010, -5.35026461858E+000, +0.00000000000E+000
+1.40625000000E+010, -5.30982211564E+000, +0.00000000000E+000
+1.40743750000E+010, -5.29117306979E+000, +0.00000000000E+000
+1.40862500000E+010, -5.28073025991E+000, +0.00000000000E+000
+1.40981250000E+010, -5.27383105686E+000, +0.00000000000E+000
+1.41100000000E+010, -5.29578131976E+000, +0.00000000000E+000
+1.41218750000E+010, -5.36761375263E+000, +0.00000000000E+000
+1.41337500000E+010, -5.39513720178E+000, +0.00000000000E+000
+1.41456250000E+010, -5.45503658939E+000, +0.00000000000E+000
+1.41575000000E+010, -5.48319049184E+000, +0.00000000000E+000
+1.41693750000E+010, -5.52034849839E+000, +0.00000000000E+000
+1.41812500000E+010, -5.55386606746E+000, +0.00000000000E+000
+1.41931250000E+010, -5.50878527422E+000, +0.00000000000E+000
+1.42050000000E+010, -5.47387158824E+000, +0.00000000000E+000
+1.42168750000E+010, -5.45822759319E+000, +0.00000000000E+000
+1.42287500000E+010, -5.45747888499E+000, +0.00000000000E+000
+1.42406250000E+010, -5.41231825394E+000, +0.00000000000E+000
+1.42525000000E+010, -5.40857829951E+000, +0.00000000000E+000
+1.42643750000E+010, -5.39790202286E+000, +0.00000000000E+000
+1.42762500000E+010, -5.52168947178E+000, +0.00000000000E+000
+1.42881250000E+010, -5.51988040357E+000, +0.00000000000E+000
+1.43000000000E+010, -5.57159663950E+000, +0.00000000000E+000
+1.43118750000E+010, -5.58912362536E+000, +0.00000000000E+000
+1.43237500000E+010, -5.58334311758E+000, +0.00000000000E+000
+1.43356250000E+010, -5.61280281720E+000, +0.00000000000E+000
+1.43475000000E+010, -5.59039315892E+000, +0.00000000000E+000
+1.43593750000E+010, -5.61309778088E+000, +0.00000000000E+000
+1.43712500000E+010, -5.55664733983E+000, +0.00000000000E+000
+1.43831250000E+010, -5.49625448014E+000, +0.00000000000E+000
+1.43950000000E+010, -5.49360587130E+000, +0.00000000000E+000
+1.44068750000E+010, -5.48529100992E+000, +0.00000000000E+000
+1.44187500000E+010, -5.46134999837E+000, +0.00000000000E+000
+1.44306250000E+010, -5.44408193739E+000, +0.00000000000E+000
+1.44425000000E+010, -5.42669902211E+000, +0.00000000000E+000
+1.44543750000E+010, -5.45166430860E+000, +0.00000000000E+000
+1.44662500000E+010, -5.44876603942E+000, +0.00000000000E+000
+1.44781250000E+010, -5.37598314414E+000, +0.00000000000E+000
+1.44900000000E+010, -5.33573991992E+000, +0.00000000000E+000
+1.45018750000E+010, -5.30274185427E+000, +0.00000000000E+000
+1.45137500000E+010, -5.24623076651E+000, +0.00000000000E+000
+1.45256250000E+010, -5.19349357420E+000, +0.00000000000E+000
+1.45375000000E+010, -5.18911029068E+000, +0.00000000000E+000
+1.45493750000E+010, -5.12531244455E+000, +0.00000000000E+000
+1.45612500000E+010, -5.10597621861E+000, +0.00000000000E+000
+1.45731250000E+010, -5.03525155219E+000, +0.00000000000E+000
+1.45850000000E+010, -4.94949606552E+000, +0.00000000000E+000
+1.45968750000E+010, -4.89785002132E+000, +0.00000000000E+000
+1.46087500000E+010, -4.77569328561E+000, +0.00000000000E+000
+1.46206250000E+010, -4.67545170565E+000, +0.00000000000E+000
+1.46325000000E+010, -4.54195633681E+000, +0.00000000000E+000
+1.46443750000E+010, -4.48601725705E+000, +0.00000000000E+000
+1.46562500000E+010, -4.41776559048E+000, +0.00000000000E+000
+1.46681250000E+010, -4.34293743362E+000, +0.00000000000E+000
+1.46800000000E+010, -4.33667671109E+000, +0.00000000000E+000
+1.46918750000E+010, -4.37634969428E+000, +0.00000000000E+000
+1.47037500000E+010, -4.38069779190E+000, +0.00000000000E+000
+1.47156250000E+010, -4.41262776587E+000, +0.00000000000E+000
+1.47275000000E+010, -4.40662257935E+000, +0.00000000000E+000
+1.47393750000E+010, -4.45368924251E+000, +0.00000000000E+000
+1.47512500000E+010, -4.40057744073E+000, +0.00000000000E+000
+1.47631250000E+010, -4.37935312534E+000, +0.00000000000E+000
+1.47750000000E+010, -4.35804958367E+000, +0.00000000000E+000
+1.47868750000E+010, -4.27728154042E+000, +0.00000000000E+000
+1.47987500000E+010, -4.22470296778E+000, +0.00000000000E+000
+1.48106250000E+010, -4.19129699453E+000, +0.00000000000E+000
+1.48225000000E+010, -4.18921537541E+000, +0.00000000000E+000
+1.48343750000E+010, -4.21505007684E+000, +0.00000000000E+000
+1.48462500000E+010, -4.28578872506E+000, +0.00000000000E+000
+1.48581250000E+010, -4.33860407455E+000, +0.00000000000E+000
+1.48700000000E+010, -4.33925434549E+000, +0.00000000000E+000
+1.48818750000E+010, -4.33250288681E+000, +0.00000000000E+000
+1.48937500000E+010, -4.33441985229E+000, +0.00000000000E+000
+1.49056250000E+010, -4.23084699570E+000, +0.00000000000E+000
+1.49175000000E+010, -4.17418336724E+000, +0.00000000000E+000
+1.49293750000E+010, -4.05430365143E+000, +0.00000000000E+000
+1.49412500000E+010, -4.02612689842E+000, +0.00000000000E+000
+1.49531250000E+010, -4.01995846938E+000, +0.00000000000E+000
+1.49650000000E+010, -4.02512337753E+000, +0.00000000000E+000
+1.49768750000E+010, -4.07936373395E+000, +0.00000000000E+000
+1.49887500000E+010, -4.19992561548E+000, +0.00000000000E+000
+1.50006250000E+010, -4.28294138068E+000, +0.00000000000E+000
+1.50125000000E+010, -4.43174532222E+000, +0.00000000000E+000
+1.50243750000E+010, -4.55365848421E+000, +0.00000000000E+000
+1.50362500000E+010, -4.65063822698E+000, +0.00000000000E+000
+1.50481250000E+010, -4.66568089726E+000, +0.00000000000E+000
+1.50600000000E+010, -4.72794107098E+000, +0.00000000000E+000
+1.50718750000E+010, -4.70426359747E+000, +0.00000000000E+000
+1.50837500000E+010, -4.71122902278E+000, +0.00000000000E+000
+1.50956250000E+010, -4.76809858907E+000, +0.00000000000E+000
+1.51075000000E+010, -4.80945155464E+000, +0.00000000000E+000
+1.51193750000E+010, -4.91231225371E+000, +0.00000000000E+000
+1.51312500000E+010, -4.97781155661E+000, +0.00000000000E+000
+1.51431250000E+010, -5.06735536755E+000, +0.00000000000E+000
+1.51550000000E+010, -5.17286296336E+000, +0.00000000000E+000
+1.51668750000E+010, -5.26577864120E+000, +0.00000000000E+000
+1.51787500000E+010, -5.30381947043E+000, +0.00000000000E+000
+1.51906250000E+010, -5.34149405242E+000, +0.00000000000E+000
+1.52025000000E+010, -5.35670099023E+000, +0.00000000000E+000
+1.52143750000E+010, -5.34999535900E+000, +0.00000000000E+000
+1.52262500000E+010, -5.27683282836E+000, +0.00000000000E+000
+1.52381250000E+010, -5.22363268618E+000, +0.00000000000E+000
+1.52500000000E+010, -5.19528627707E+000, +0.00000000000E+000
+1.52618750000E+010, -5.10588305883E+000, +0.00000000000E+000
+1.52737500000E+010, -5.01558382897E+000, +0.00000000000E+000
+1.52856250000E+010, -5.01080663834E+000, +0.00000000000E+000
+1.52975000000E+010, -5.00873361795E+000, +0.00000000000E+000
+1.53093750000E+010, -4.96315907771E+000, +0.00000000000E+000
+1.53212500000E+010, -4.94794983960E+000, +0.00000000000E+000
+1.53331250000E+010, -4.95402359682E+000, +0.00000000000E+000
+1.53450000000E+010, -4.94947798347E+000, +0.00000000000E+000
+1.53568750000E+010, -4.99644420252E+000, +0.00000000000E+000
+1.53687500000E+010, -4.98351170959E+000, +0.00000000000E+000
+1.53806250000E+010, -4.96042610326E+000, +0.00000000000E+000
+1.53925000000E+010, -4.94916613495E+000, +0.00000000000E+000
+1.54043750000E+010, -4.90474993342E+000, +0.00000000000E+000
+1.54162500000E+010, -4.84386160876E+000, +0.00000000000E+000
+1.54281250000E+010, -4.75892157029E+000, +0.00000000000E+000
+1.54400000000E+010, -4.66240351574E+000, +0.00000000000E+000
+1.54518750000E+010, -4.58772495819E+000, +0.00000000000E+000
+1.54637500000E+010, -4.48106687298E+000, +0.00000000000E+000
+1.54756250000E+010, -4.48179901338E+000, +0.00000000000E+000
+1.54875000000E+010, -4.43880751095E+000, +0.00000000000E+000
+1.54993750000E+010, -4.50493849426E+000, +0.00000000000E+000
+1.55112500000E+010, -4.52250278388E+000, +0.00000000000E+000
+1.55231250000E+010, -4.53179812170E+000, +0.00000000000E+000
+1.55350000000E+010, -4.55209776936E+000, +0.00000000000E+000
+1.55468750000E+010, -4.58015911104E+000, +0.00000000000E+000
+1.55587500000E+010, -4.61323729906E+000, +0.00000000000E+000
+1.55706250000E+010, -4.53906381848E+000, +0.00000000000E+000
+1.55825000000E+010, -4.47886173719E+000, +0.00000000000E+000
+1.55943750000E+010, -4.39468765794E+000, +0.00000000000E+000
+1.56062500000E+010, -4.38825586970E+000, +0.00000000000E+000
+1.56181250000E+010, -4.34015184433E+000, +0.00000000000E+000
+1.56300000000E+010, -4.33897916589E+000, +0.00000000000E+000
+1.56418750000E+010, -4.36688478993E+000, +0.00000000000E+000
+1.56537500000E+010, -4.43524999502E+000, +0.00000000000E+000
+1.56656250000E+010, -4.52862594154E+000, +0.00000000000E+000
+1.56775000000E+010, -4.58705196105E+000, +0.00000000000E+000
+1.56893750000E+010, -4.69660075691E+000, +0.00000000000E+000
+1.57012500000E+010, -4.72989659255E+000, +0.00000000000E+000
+1.57131250000E+010, -4.70521041899E+000, +0.00000000000E+000
+1.57250000000E+010, -4.70747023680E+000, +0.00000000000E+000
+1.57368750000E+010, -4.65988187887E+000, +0.00000000000E+000
+1.57487500000E+010, -4.55686356704E+000, +0.00000000000E+000
+1.57606250000E+010, -4.50825574720E+000, +0.00000000000E+000
+1.57725000000E+010, -4.43097809166E+000, +0.00000000000E+000
+1.57843750000E+010, -4.47145711399E+000, +0.00000000000E+000
+1.57962500000E+010, -4.51218917645E+000, +0.00000000000E+000
+1.58081250000E+010, -4.65593355723E+000, +0.00000000000E+000
+1.58200000000E+010, -4.84314187351E+000, +0.00000000000E+000
+1.58318750000E+010, -4.99884585559E+000, +0.00000000000E+000
+1.58437500000E+010, -5.16819805152E+000, +0.00000000000E+000
+1.58556250000E+010, -5.31193859467E+000, +0.00000000000E+000
+1.58675000000E+010, -5.42152984724E+000, +0.00000000000E+000
+1.58793750000E+010, -5.46064747207E+000, +0.00000000000E+000
+1.58912500000E+010, -5.45465699569E+000, +0.00000000000E+000
+1.59031250000E+010, -5.36743054434E+000, +0.00000000000E+000
+1.59150000000E+010, -5.33842597473E+000, +0.00000000000E+000
+1.59268750000E+010, -5.23765967234E+000, +0.00000000000E+000
+1.59387500000E+010, -5.14461119107E+000, +0.00000000000E+000
+1.59506250000E+010, -5.10012455740E+000, +0.00000000000E+000
+1.59625000000E+010, -5.08682095248E+000, +0.00000000000E+000
+1.59743750000E+010, -5.16346610284E+000, +0.00000000000E+000
+1.59862500000E+010, -5.24017356580E+000, +0.00000000000E+000
+1.59981250000E+010, -5.33440915699E+000, +0.00000000000E+000
+1.60100000000E+010, -5.36672377175E+000, +0.00000000000E+000
+1.60218750000E+010, -5.37812085243E+000, +0.00000000000E+000
+1.60337500000E+010, -5.37007502618E+000, +0.00000000000E+000
+1.60456250000E+010, -5.29007046074E+000, +0.00000000000E+000
+1.60575000000E+010, -5.15492958551E+000, +0.00000000000E+000
+1.60693750000E+010, -4.96830493331E+000, +0.00000000000E+000
+1.60812500000E+010, -4.77605304796E+000, +0.00000000000E+000
+1.60931250000E+010, -4.62136220891E+000, +0.00000000000E+000
+1.61050000000E+010, -4.50747394573E+000, +0.00000000000E+000
+1.61168750000E+010, -4.46073896253E+000, +0.00000000000E+000
+1.61287500000E+010, -4.44709393068E+000, +0.00000000000E+000
+1.61406250000E+010, -4.50052887423E+000, +0.00000000000E+000
+1.61525000000E+010, -4.64437930564E+000, +0.00000000000E+000
+1.61643750000E+010, -4.73970124527E+000, +0.00000000000E+000
+1.61762500000E+010, -4.85938513329E+000, +0.00000000000E+000
+1.61881250000E+010, -4.93970234455E+000, +0.00000000000E+000
+1.62000000000E+010, -4.99007795980E+000, +0.00000000000E+000
+1.62118750000E+010, -5.00893362202E+000, +0.00000000000E+000
+1.62237500000E+010, -5.00246980638E+000, +0.00000000000E+000
+1.62356250000E+010, -4.97995832230E+000, +0.00000000000E+000
+1.62475000000E+010, -4.96713494893E+000, +0.00000000000E+000
+1.62593750000E+010, -4.94793598434E+000, +0.00000000000E+000
+1.62712500000E+010, -4.94977812742E+000, +0.00000000000E+000
+1.62831250000E+010, -4.99556907809E+000, +0.00000000000E+000
+1.62950000000E+010, -5.09421359570E+000, +0.00000000000E+000
+1.63068750000E+010, -5.12303767731E+000, +0.00000000000E+000
+1.63187500000E+010, -5.18481118148E+000, +0.00000000000E+000
+1.63306250000E+010, -5.24804984753E+000, +0.00000000000E+000
+1.63425000000E+010, -5.23878657243E+000, +0.00000000000E+000
+1.63543750000E+010, -5.19023892281E+000, +0.00000000000E+000
+1.63662500000E+010, -5.09598998841E+000, +0.00000000000E+000
+1.63781250000E+010, -4.94489989056E+000, +0.00000000000E+000
+1.63900000000E+010, -4.74749998213E+000, +0.00000000000E+000
+1.64018750000E+010, -4.54631339291E+000, +0.00000000000E+000
+1.64137500000E+010, -4.42342054141E+000, +0.00000000000E+000
+1.64256250000E+010, -4.26600053292E+000, +0.00000000000E+000
+1.64375000000E+010, -4.22406387901E+000, +0.00000000000E+000
+1.64493750000E+010, -4.23081905498E+000, +0.00000000000E+000
+1.64612500000E+010, -4.29348906122E+000, +0.00000000000E+000
+1.64731250000E+010, -4.40571409853E+000, +0.00000000000E+000
+1.64850000000E+010, -4.49540302795E+000, +0.00000000000E+000
+1.64968750000E+010, -4.53399024386E+000, +0.00000000000E+000
+1.65087500000E+010, -4.61653273598E+000, +0.00000000000E+000
+1.65206250000E+010, -4.63113385426E+000, +0.00000000000E+000
+1.65325000000E+010, -4.65769932028E+000, +0.00000000000E+000
+1.65443750000E+010, -4.55164790124E+000, +0.00000000000E+000
+1.65562500000E+010, -4.52190187617E+000, +0.00000000000E+000
+1.65681250000E+010, -4.42175285030E+000, +0.00000000000E+000
+1.65800000000E+010, -4.37812724484E+000, +0.00000000000E+000
+1.65918750000E+010, -4.35519298213E+000, +0.00000000000E+000
+1.66037500000E+010, -4.37269784613E+000, +0.00000000000E+000
+1.66156250000E+010, -4.38353322067E+000, +0.00000000000E+000
+1.66275000000E+010, -4.46889630982E+000, +0.00000000000E+000
+1.66393750000E+010, -4.52928591738E+000, +0.00000000000E+000
+1.66512500000E+010, -4.59270236865E+000, +0.00000000000E+000
+1.66631250000E+010, -4.67553932216E+000, +0.00000000000E+000
+1.66750000000E+010, -4.70084387125E+000, +0.00000000000E+000
+1.66868750000E+010, -4.72457146117E+000, +0.00000000000E+000
+1.66987500000E+010, -4.71778309604E+000, +0.00000000000E+000
+1.67106250000E+010, -4.63023012498E+000, +0.00000000000E+000
+1.67225000000E+010, -4.52676844660E+000, +0.00000000000E+000
+1.67343750000E+010, -4.44806150659E+000, +0.00000000000E+000
+1.67462500000E+010, -4.34874385523E+000, +0.00000000000E+000
+1.67581250000E+010, -4.27085580143E+000, +0.00000000000E+000
+1.67700000000E+010, -4.22300834278E+000, +0.00000000000E+000
+1.67818750000E+010, -4.23695649241E+000, +0.00000000000E+000
+1.67937500000E+010, -4.22246304474E+000, +0.00000000000E+000
+1.68056250000E+010, -4.26723037758E+000, +0.00000000000E+000
+1.68175000000E+010, -4.34378318497E+000, +0.00000000000E+000
+1.68293750000E+010, -4.36272554704E+000, +0.00000000000E+000
+1.68412500000E+010, -4.36581131266E+000, +0.00000000000E+000
+1.68531250000E+010, -4.39724432104E+000, +0.00000000000E+000
+1.68650000000E+010, -4.37570854491E+000, +0.00000000000E+000
+1.68768750000E+010, -4.34273682828E+000, +0.00000000000E+000
+1.68887500000E+010, -4.30250606325E+000, +0.00000000000E+000
+1.69006250000E+010, -4.29484157582E+000, +0.00000000000E+000
+1.69125000000E+010, -4.32916862766E+000, +0.00000000000E+000
+1.69243750000E+010, -4.38324358931E+000, +0.00000000000E+000
+1.69362500000E+010, -4.51099135443E+000, +0.00000000000E+000
+1.69481250000E+010, -4.68487698531E+000, +0.00000000000E+000
+1.69600000000E+010, -4.88677486298E+000, +0.00000000000E+000
+1.69718750000E+010, -5.12603469518E+000, +0.00000000000E+000
+1.69837500000E+010, -5.30487937804E+000, +0.00000000000E+000
+1.69956250000E+010, -5.49839555515E+000, +0.00000000000E+000
+1.70075000000E+010, -5.61155726941E+000, +0.00000000000E+000
+1.70193750000E+010, -5.69025454243E+000, +0.00000000000E+000
+1.70312500000E+010, -5.67095972788E+000, +0.00000000000E+000
+1.70431250000E+010, -5.69186845325E+000, +0.00000000000E+000
+1.70550000000E+010, -5.58941671018E+000, +0.00000000000E+000
+1.70668750000E+010, -5.51138912731E+000, +0.00000000000E+000
+1.70787500000E+010, -5.48466199925E+000, +0.00000000000E+000
+1.70906250000E+010, -5.39279048372E+000, +0.00000000000E+000
+1.71025000000E+010, -5.40317714796E+000, +0.00000000000E+000
+1.71143750000E+010, -5.37757141762E+000, +0.00000000000E+000
+1.71262500000E+010, -5.43312224218E+000, +0.00000000000E+000
+1.71381250000E+010, -5.51285545637E+000, +0.00000000000E+000
+1.71500000000E+010, -5.52632664219E+000, +0.00000000000E+000
+1.71618750000E+010, -5.60153267944E+000, +0.00000000000E+000
+1.71737500000E+010, -5.54129380858E+000, +0.00000000000E+000
+1.71856250000E+010, -5.47993797426E+000, +0.00000000000E+000
+1.71975000000E+010, -5.38246288415E+000, +0.00000000000E+000
+1.72093750000E+010, -5.28313549245E+000, +0.00000000000E+000
+1.72212500000E+010, -5.11675742233E+000, +0.00000000000E+000
+1.72331250000E+010, -4.98489623414E+000, +0.00000000000E+000
+1.72450000000E+010, -4.88059744013E+000, +0.00000000000E+000
+1.72568750000E+010, -4.79677210527E+000, +0.00000000000E+000
+1.72687500000E+010, -4.76158579967E+000, +0.00000000000E+000
+1.72806250000E+010, -4.77341868823E+000, +0.00000000000E+000
+1.72925000000E+010, -4.84264876175E+000, +0.00000000000E+000
+1.73043750000E+010, -4.88089260921E+000, +0.00000000000E+000
+1.73162500000E+010, -4.93277424603E+000, +0.00000000000E+000
+1.73281250000E+010, -4.96011554183E+000, +0.00000000000E+000
+1.73400000000E+010, -4.97229062993E+000, +0.00000000000E+000
+1.73518750000E+010, -4.93980361876E+000, +0.00000000000E+000
+1.73637500000E+010, -4.93783029390E+000, +0.00000000000E+000
+1.73756250000E+010, -4.84887181384E+000, +0.00000000000E+000
+1.73875000000E+010, -4.77772002713E+000, +0.00000000000E+000
+1.73993750000E+010, -4.67870337006E+000, +0.00000000000E+000
+1.74112500000E+010, -4.69690781440E+000, +0.00000000000E+000
+1.74231250000E+010, -4.68782288674E+000, +0.00000000000E+000
+1.74350000000E+010, -4.65069963019E+000, +0.00000000000E+000
+1.74468750000E+010, -4.70497339414E+000, +0.00000000000E+000
+1.74587500000E+010, -4.67429335149E+000, +0.00000000000E+000
+1.74706250000E+010, -4.62330911667E+000, +0.00000000000E+000
+1.74825000000E+010, -4.64743786708E+000, +0.00000000000E+000
+1.74943750000E+010, -4.58988693030E+000, +0.00000000000E+000
+1.75062500000E+010, -4.51739961225E+000, +0.00000000000E+000
+1.75181250000E+010, -4.42250086029E+000, +0.00000000000E+000
+1.75300000000E+010, -4.38609944469E+000, +0.00000000000E+000
+1.75418750000E+010, -4.29106990250E+000, +0.00000000000E+000
+1.75537500000E+010, -4.24702253000E+000, +0.00000000000E+000
+1.75656250000E+010, -4.26699957746E+000, +0.00000000000E+000
+1.75775000000E+010, -4.27769474284E+000, +0.00000000000E+000
+1.75893750000E+010, -4.31972287475E+000, +0.00000000000E+000
+1.76012500000E+010, -4.34503434349E+000, +0.00000000000E+000
+1.76131250000E+010, -4.42608387678E+000, +0.00000000000E+000
+1.76250000000E+010, -4.48421059365E+000, +0.00000000000E+000
+1.76368750000E+010, -4.48135942551E+000, +0.00000000000E+000
+1.76487500000E+010, -4.47992383810E+000, +0.00000000000E+000
+1.76606250000E+010, -4.48603700032E+000, +0.00000000000E+000
+1.76725000000E+010, -4.44196132994E+000, +0.00000000000E+000
+1.76843750000E+010, -4.38403842989E+000, +0.00000000000E+000
+1.76962500000E+010, -4.35423786846E+000, +0.00000000000E+000
+1.77081250000E+010, -4.28483868649E+000, +0.00000000000E+000
+1.77200000000E+010, -4.21047574165E+000, +0.00000000000E+000
+1.77318750000E+010, -4.21133552782E+000, +0.00000000000E+000
+1.77437500000E+010, -4.20802298409E+000, +0.00000000000E+000
+1.77556250000E+010, -4.21410589234E+000, +0.00000000000E+000
+1.77675000000E+010, -4.25392044403E+000, +0.00000000000E+000
+1.77793750000E+010, -4.24332124647E+000, +0.00000000000E+000
+1.77912500000E+010, -4.33027901298E+000, +0.00000000000E+000
+1.78031250000E+010, -4.40691327702E+000, +0.00000000000E+000
+1.78150000000E+010, -4.47487140100E+000, +0.00000000000E+000
+1.78268750000E+010, -4.60067590099E+000, +0.00000000000E+000
+1.78387500000E+010, -4.67114821115E+000, +0.00000000000E+000
+1.78506250000E+010, -4.68516736101E+000, +0.00000000000E+000
+1.78625000000E+010, -4.79507777275E+000, +0.00000000000E+000
+1.78743750000E+010, -4.75809869067E+000, +0.00000000000E+000
+1.78862500000E+010, -4.74668609967E+000, +0.00000000000E+000
+1.78981250000E+010, -4.69491306634E+000, +0.00000000000E+000
+1.79100000000E+010, -4.60212662496E+000, +0.00000000000E+000
+1.79218750000E+010, -4.46660986459E+000, +0.00000000000E+000
+1.79337500000E+010, -4.40443668091E+000, +0.00000000000E+000
+1.79456250000E+010, -4.31993731087E+000, +0.00000000000E+000
+1.79575000000E+010, -4.22246031296E+000, +0.00000000000E+000
+1.79693750000E+010, -4.18428845566E+000, +0.00000000000E+000
+1.79812500000E+010, -4.17476007055E+000, +0.00000000000E+000
+1.79931250000E+010, -4.15092227896E+000, +0.00000000000E+000
+1.80050000000E+010, -4.11987358489E+000, +0.00000000000E+000
+1.80168750000E+010, -4.09097603768E+000, +0.00000000000E+000
+1.80287500000E+010, -4.07825637214E+000, +0.00000000000E+000
+1.80406250000E+010, -4.02475259808E+000, +0.00000000000E+000
+1.80525000000E+010, -3.99499222759E+000, +0.00000000000E+000
+1.80643750000E+010, -3.94226700674E+000, +0.00000000000E+000
+1.80762500000E+010, -3.92369580487E+000, +0.00000000000E+000
+1.80881250000E+010, -3.92962611769E+000, +0.00000000000E+000
+1.81000000000E+010, -3.95871052139E+000, +0.00000000000E+000
+1.81118750000E+010, -4.02031982487E+000, +0.00000000000E+000
+1.81237500000E+010, -4.09544435550E+000, +0.00000000000E+000
+1.81356250000E+010, -4.19560147493E+000, +0.00000000000E+000
+1.81475000000E+010, -4.22578831837E+000, +0.00000000000E+000
+1.81593750000E+010, -4.32000972919E+000, +0.00000000000E+000
+1.81712500000E+010, -4.37124289744E+000, +0.00000000000E+000
+1.81831250000E+010, -4.38565122822E+000, +0.00000000000E+000
+1.81950000000E+010, -4.43140544159E+000, +0.00000000000E+000
+1.82068750000E+010, -4.38561466576E+000, +0.00000000000E+000
+1.82187500000E+010, -4.38670587950E+000, +0.00000000000E+000
+1.82306250000E+010, -4.37946162001E+000, +0.00000000000E+000
+1.82425000000E+010, -4.34225531507E+000, +0.00000000000E+000
+1.82543750000E+010, -4.34306022415E+000, +0.00000000000E+000
+1.82662500000E+010, -4.35802884376E+000, +0.00000000000E+000
+1.82781250000E+010, -4.41575411962E+000, +0.00000000000E+000
+1.82900000000E+010, -4.38070944094E+000, +0.00000000000E+000
+1.83018750000E+010, -4.44042808241E+000, +0.00000000000E+000
+1.83137500000E+010, -4.49735461501E+000, +0.00000000000E+000
+1.83256250000E+010, -4.45339153608E+000, +0.00000000000E+000
+1.83375000000E+010, -4.46358171962E+000, +0.00000000000E+000
+1.83493750000E+010, -4.43671999845E+000, +0.00000000000E+000
+1.83612500000E+010, -4.35313446637E+000, +0.00000000000E+000
+1.83731250000E+010, -4.24948586967E+000, +0.00000000000E+000
+1.83850000000E+010, -4.17961532285E+000, +0.00000000000E+000
+1.83968750000E+010, -4.12695135449E+000, +0.00000000000E+000
+1.84087500000E+010, -4.07326188236E+000, +0.00000000000E+000
+1.84206250000E+010, -4.12206824972E+000, +0.00000000000E+000
+1.84325000000E+010, -4.13388018283E+000, +0.00000000000E+000
+1.84443750000E+010, -4.18085701125E+000, +0.00000000000E+000
+1.84562500000E+010, -4.24846026134E+000, +0.00000000000E+000
+1.84681250000E+010, -4.34326277005E+000, +0.00000000000E+000
+1.84800000000E+010, -4.41718603651E+000, +0.00000000000E+000
+1.84918750000E+010, -4.46286644943E+000, +0.00000000000E+000
+1.85037500000E+010, -4.52704396316E+000, +0.00000000000E+000
+1.85156250000E+010, -4.55419826614E+000, +0.00000000000E+000
+1.85275000000E+010, -4.51586513536E+000, +0.00000000000E+000
+1.85393750000E+010, -4.47627481284E+000, +0.00000000000E+000
+1.85512500000E+010, -4.41512607184E+000, +0.00000000000E+000
+1.85631250000E+010, -4.37174407110E+000, +0.00000000000E+000
+1.85750000000E+010, -4.33067156404E+000, +0.00000000000E+000
+1.85868750000E+010, -4.31750090781E+000, +0.00000000000E+000
+1.85987500000E+010, -4.27069210030E+000, +0.00000000000E+000
+1.86106250000E+010, -4.25701995779E+000, +0.00000000000E+000
+1.86225000000E+010, -4.27346534832E+000, +0.00000000000E+000
+1.86343750000E+010, -4.22577175426E+000, +0.00000000000E+000
+1.86462500000E+010, -4.30391854007E+000, +0.00000000000E+000
+1.86581250000E+010, -4.34716691797E+000, +0.00000000000E+000
+1.86700000000E+010, -4.36496515645E+000, +0.00000000000E+000
+1.86818750000E+010, -4.42191253336E+000, +0.00000000000E+000
+1.86937500000E+010, -4.45327515497E+000, +0.00000000000E+000
+1.87056250000E+010, -4.47194055628E+000, +0.00000000000E+000
+1.87175000000E+010, -4.43523556934E+000, +0.00000000000E+000
+1.87293750000E+010, -4.34293412466E+000, +0.00000000000E+000
+1.87412500000E+010, -4.28526728798E+000, +0.00000000000E+000
+1.87531250000E+010, -4.24091324295E+000, +0.00000000000E+000
+1.87650000000E+010, -4.17727531855E+000, +0.00000000000E+000
+1.87768750000E+010, -4.10624819377E+000, +0.00000000000E+000
+1.87887500000E+010, -4.07512104403E+000, +0.00000000000E+000
+1.88006250000E+010, -4.06311734780E+000, +0.00000000000E+000
+1.88125000000E+010, -4.11480040964E+000, +0.00000000000E+000
+1.88243750000E+010, -4.18365836569E+000, +0.00000000000E+000
+1.88362500000E+010, -4.25522758160E+000, +0.00000000000E+000
+1.88481250000E+010, -4.27052977332E+000, +0.00000000000E+000
+1.88600000000E+010, -4.34658719730E+000, +0.00000000000E+000
+1.88718750000E+010, -4.36082840237E+000, +0.00000000000E+000
+1.88837500000E+010, -4.41974814313E+000, +0.00000000000E+000
+1.88956250000E+010, -4.49905053725E+000, +0.00000000000E+000
+1.89075000000E+010, -4.58337535017E+000, +0.00000000000E+000
+1.89193750000E+010, -4.65235160283E+000, +0.00000000000E+000
+1.89312500000E+010, -4.78012666382E+000, +0.00000000000E+000
+1.89431250000E+010, -4.93213824288E+000, +0.00000000000E+000
+1.89550000000E+010, -5.06430883210E+000, +0.00000000000E+000
+1.89668750000E+010, -5.27182759462E+000, +0.00000000000E+000
+1.89787500000E+010, -5.41471506235E+000, +0.00000000000E+000
+1.89906250000E+010, -5.53020316972E+000, +0.00000000000E+000
+1.90025000000E+010, -5.62917534625E+000, +0.00000000000E+000
+1.90143750000E+010, -5.71432879015E+000, +0.00000000000E+000
+1.90262500000E+010, -5.76020363807E+000, +0.00000000000E+000
+1.90381250000E+010, -5.69708929462E+000, +0.00000000000E+000
+1.90500000000E+010, -5.62713102369E+000, +0.00000000000E+000
+1.90618750000E+010, -5.55570804999E+000, +0.00000000000E+000
+1.90737500000E+010, -5.38135338794E+000, +0.00000000000E+000
+1.90856250000E+010, -5.26459899832E+000, +0.00000000000E+000
+1.90975000000E+010, -5.19275253109E+000, +0.00000000000E+000
+1.91093750000E+010, -5.10008265078E+000, +0.00000000000E+000
+1.91212500000E+010, -5.12100653019E+000, +0.00000000000E+000
+1.91331250000E+010, -5.11027419267E+000, +0.00000000000E+000
+1.91450000000E+010, -5.19150814206E+000, +0.00000000000E+000
+1.91568750000E+010, -5.23543140910E+000, +0.00000000000E+000
+1.91687500000E+010, -5.30814586178E+000, +0.00000000000E+000
+1.91806250000E+010, -5.36217259078E+000, +0.00000000000E+000
+1.91925000000E+010, -5.36796836260E+000, +0.00000000000E+000
+1.92043750000E+010, -5.31571099856E+000, +0.00000000000E+000
+1.92162500000E+010, -5.28529044789E+000, +0.00000000000E+000
+1.92281250000E+010, -5.25711640306E+000, +0.00000000000E+000
+1.92400000000E+010, -5.24976978626E+000, +0.00000000000E+000
+1.92518750000E+010, -5.27182335908E+000, +0.00000000000E+000
+1.92637500000E+010, -5.31309502819E+000, +0.00000000000E+000
+1.92756250000E+010, -5.36871359692E+000, +0.00000000000E+000
+1.92875000000E+010, -5.52116504138E+000, +0.00000000000E+000
+1.92993750000E+010, -5.60069498767E+000, +0.00000000000E+000
+1.93112500000E+010, -5.71296067105E+000, +0.00000000000E+000
+1.93231250000E+010, -5.76033436565E+000, +0.00000000000E+000
+1.93350000000E+010, -5.85035879269E+000, +0.00000000000E+000
+1.93468750000E+010, -5.81996522157E+000, +0.00000000000E+000
+1.93587500000E+010, -5.81803705014E+000, +0.00000000000E+000
+1.93706250000E+010, -5.80171643505E+000, +0.00000000000E+000
+1.93825000000E+010, -5.63391824803E+000, +0.00000000000E+000
+1.93943750000E+010, -5.51979756535E+000, +0.00000000000E+000
+1.94062500000E+010, -5.30778856162E+000, +0.00000000000E+000
+1.94181250000E+010, -5.20409231649E+000, +0.00000000000E+000
+1.94300000000E+010, -5.06677971046E+000, +0.00000000000E+000
+1.94418750000E+010, -5.01744902840E+000, +0.00000000000E+000
+1.94537500000E+010, -4.97022073652E+000, +0.00000000000E+000
+1.94656250000E+010, -4.94133817150E+000, +0.00000000000E+000
+1.94775000000E+010, -4.96282842856E+000, +0.00000000000E+000
+1.94893750000E+010, -4.91773505767E+000, +0.00000000000E+000
+1.95012500000E+010, -4.92292370948E+000, +0.00000000000E+000
+1.95131250000E+010, -4.85491537682E+000, +0.00000000000E+000
+1.95250000000E+010, -4.83092799913E+000, +0.00000000000E+000
+1.95368750000E+010, -4.86401377676E+000, +0.00000000000E+000
+1.95487500000E+010, -4.84019931603E+000, +0.00000000000E+000
+1.95606250000E+010, -4.89319834743E+000, +0.00000000000E+000
+1.95725000000E+010, -4.98539843773E+000, +0.00000000000E+000
+1.95843750000E+010, -5.17842268266E+000, +0.00000000000E+000
+1.95962500000E+010, -5.28527150689E+000, +0.00000000000E+000
+1.96081250000E+010, -5.46165575894E+000, +0.00000000000E+000
+1.96200000000E+010, -5.66591295899E+000, +0.00000000000E+000
+1.96318750000E+010, -5.85780798341E+000, +0.00000000000E+000
+1.96437500000E+010, -6.02139703405E+000, +0.00000000000E+000
+1.96556250000E+010, -6.16043538924E+000, +0.00000000000E+000
+1.96675000000E+010, -6.32732172969E+000, +0.00000000000E+000
+1.96793750000E+010, -6.41422899563E+000, +0.00000000000E+000
+1.96912500000E+010, -6.43497873835E+000, +0.00000000000E+000
+1.97031250000E+010, -6.50247471780E+000, +0.00000000000E+000
+1.97150000000E+010, -6.53676567713E+000, +0.00000000000E+000
+1.97268750000E+010, -6.48155301127E+000, +0.00000000000E+000
+1.97387500000E+010, -6.48016171519E+000, +0.00000000000E+000
+1.97506250000E+010, -6.47881119040E+000, +0.00000000000E+000
+1.97625000000E+010, -6.47433587610E+000, +0.00000000000E+000
+1.97743750000E+010, -6.49797164118E+000, +0.00000000000E+000
+1.97862500000E+010, -6.51290159213E+000, +0.00000000000E+000
+1.97981250000E+010, -6.55111225395E+000, +0.00000000000E+000
+1.98100000000E+010, -6.54153702679E+000, +0.00000000000E+000
+1.98218750000E+010, -6.60878170202E+000, +0.00000000000E+000
+1.98337500000E+010, -6.52905135541E+000, +0.00000000000E+000
+1.98456250000E+010, -6.56301746822E+000, +0.00000000000E+000
+1.98575000000E+010, -6.54385436584E+000, +0.00000000000E+000
+1.98693750000E+010, -6.40869588207E+000, +0.00000000000E+000
+1.98812500000E+010, -6.28743671383E+000, +0.00000000000E+000
+1.98931250000E+010, -6.16505174737E+000, +0.00000000000E+000
+1.99050000000E+010, -6.05823897059E+000, +0.00000000000E+000
+1.99168750000E+010, -5.93129868908E+000, +0.00000000000E+000
+1.99287500000E+010, -5.83784657385E+000, +0.00000000000E+000
+1.99406250000E+010, -5.86828655004E+000, +0.00000000000E+000
+1.99525000000E+010, -5.88443553391E+000, +0.00000000000E+000
+1.99643750000E+010, -5.91150258829E+000, +0.00000000000E+000
+1.99762500000E+010, -5.93635450171E+000, +0.00000000000E+000
+1.99881250000E+010, -6.03788461488E+000, +0.00000000000E+000
+2.00000000000E+010, -6.08789617112E+000, +0.00000000000E+000
